人 0.463542 0.0450895 -0.0713145 -0.0124979 -0.501323 -0.0837438 -0.048424 -0.151097 0.139324 0.149003 0.127007 -0.0792678 0.0306002 -0.0584443 -0.029494 0.190719 -0.314058 0.177844 0.269212 0.238316 -0.0902371 0.0391627 0.0506267 0.281892 0.125558 -0.586884 0.0762981 0.0455022 -0.0789271 0.066292 0.0594985 -0.0703548 0.249735 -0.172429 0.143777 0.216976 -0.221383 0.171806 -0.0561304 0.00597565 -0.436929 0.439333 -0.359993 -0.0633264 -0.356963 -0.164996 -0.170472 0.034456 -0.0173118 -0.194399 -0.284985 0.222031 -0.151665 -0.136588 -0.179924 -0.0725177 0.491535 -0.0182393 0.38741 -0.0606536 -0.127405 0.0579983 -0.102479 -0.267039 0.103338 0.112095 0.218849 -0.225654 0.678331 0.131644 0.157833 -0.155438 0.173754 -0.0897995 -0.0375304 0.0878069 0.0375474 0.0789142 0.0547391 -0.212833 -0.0684175 0.209665 -0.0688629 -0.186389 -0.0652519 -0.254902 0.0483475 0.164732 0.10456 0.00413967 0.165699 -0.35058 -0.392524 0.0482273 0.0434271 0.0957477 -0.124523 -0.2398 -0.397949 0.0115734 -0.150814 0.404669 -0.119054 0.443181 0.121862 0.0487972 0.492602 0.441469 0.0856396 0.0151722 -0.0319581 0.303711 -0.224409 0.461996 -0.149644 -0.208524 -0.163818 -0.126622 -0.0664567 -0.18597 0.243945 -0.458753 -0.226072 -0.0343744 -0.46858 0.0291515 -0.192329 0.0666682
說 0.0407904 -0.312062 -0.331624 -0.0942394 -0.298042 -0.126436 0.180739 0.22853 0.107634 0.263678 0.214915 -0.0682681 -0.107923 -0.0153235 -0.336766 0.195505 -0.198404 0.326573 0.234242 -0.0847597 -0.486369 0.182781 -0.34284 0.210793 0.246224 -0.192593 -0.347826 -0.137469 -0.16034 -0.0422344 0.168135 -0.0914821 0.143635 -0.256937 0.0532671 0.405424 -0.24561 0.241666 -0.249806 0.116733 0.0653313 -0.129081 -0.224128 -0.00390763 -0.191165 -0.252887 0.0593864 0.215841 0.161757 -0.240607 -0.00440924 0.356391 -0.0702971 0.178124 -0.0868178 -0.0443254 0.0735708 -0.177266 0.0450163 -0.0430716 -0.154947 -0.144713 0.00888706 -0.0379056 0.147184 -0.16154 0.408008 -0.045604 0.0259792 -0.503102 0.0702118 0.0139891 0.139895 -0.254371 -0.104392 0.491945 -0.0996844 -0.0613212 -0.0797638 -0.147932 -0.250235 0.0683011 0.242756 0.13267 -0.0556572 0.0616801 -0.166508 0.0247495 -0.209649 0.349226 0.240045 0.242819 -0.26703 -0.44888 -0.260825 -0.138652 0.00248465 -0.133177 -0.218439 -0.00268011 -0.317628 -0.112979 -0.11851 0.297153 0.137872 0.0921875 0.282496 -0.0203657 -0.156242 -0.269413 0.0551067 0.0292289 -0.193174 0.392459 -0.276445 -0.10247 0.0913924 0.105362 0.1107 -0.070709 0.158586 -0.0600255 -0.322363 -0.0647611 -0.116531 -0.133116 -0.344485 0.121033
看 0.277755 0.00626363 0.0201955 -0.112246 0.0378651 -0.252794 0.31846 -0.0367756 0.282478 0.283108 0.40525 0.320688 0.0628656 0.440595 0.0281173 -0.0574365 -0.403312 0.297317 -0.137142 -0.0875979 -0.256737 0.120971 -0.246054 -0.105611 -0.0299833 0.142391 -0.151663 -0.0222017 0.0322356 0.0364251 -0.200412 -0.211191 0.190858 -0.0597308 0.222616 0.126456 0.0785294 0.0520595 0.112757 0.170436 0.23791 0.268676 -0.0753734 0.13959 -0.208723 -0.130267 0.158553 -0.282617 0.170067 -0.103534 0.137879 0.405969 -0.116302 -0.0797629 -0.00750509 -0.314061 0.385763 0.0628497 0.0516077 0.149649 -0.177421 0.0760283 0.127908 -0.0306862 0.210331 -0.158555 0.249856 -0.028921 0.431917 0.0689431 -0.123675 0.109924 -0.0430604 -0.527621 -0.0798697 0.262233 0.0292575 -0.196858 0.219144 0.166695 -0.138311 -0.0798052 0.257828 0.387559 -0.244443 -0.0983518 -0.0647462 0.34813 0.126566 0.584329 -0.0401701 -0.0123425 -0.21732 -0.399044 0.00651765 0.136414 0.106212 0.0267348 0.0700688 -0.0847389 -0.317404 -0.0537471 -0.407954 0.337372 -0.00762 -0.0204311 0.440884 0.0413266 -0.212974 -0.114323 0.201631 -0.0881179 -0.0102086 0.116751 -0.178598 -0.38284 0.13395 0.31495 0.148536 0.0356796 -0.147598 -0.264112 -0.130421 -0.30275 -0.151977 -0.282485 -0.446612 0.13419
推 0.199089 0.14458 0.0533723 -0.0541643 -0.733064 0.0816779 0.453097 -0.0258954 0.547919 0.049767 -0.017688 -0.018461 -0.0827617 0.188131 0.189374 0.0639286 -0.289415 0.224708 0.481834 0.0315642 -0.0115188 0.144439 0.0740621 -0.0390973 0.389735 -0.212277 0.146503 -0.187241 -0.308425 0.0157001 -0.329037 -0.35037 0.02043 -0.227161 -0.000498567 0.246579 0.366824 -0.227937 0.132153 -0.00858212 0.421989 -0.268324 -0.231801 0.139322 -0.138227 -0.00810774 0.276872 0.301682 0.0316685 -0.117961 0.184973 0.0721335 0.0153686 0.118732 -0.00477622 0.0771893 0.224398 -0.400673 -0.00720741 -0.224631 -0.503262 0.173194 0.15192 -0.10857 0.242603 -0.265476 0.57302 0.0609107 0.367455 -0.458711 -0.170196 0.0716825 -0.26029 0.110829 -0.136584 -0.0812023 0.142131 -0.0397836 0.0475492 0.164953 0.183376 0.0388491 0.209717 -0.0640501 -0.107205 -0.0869226 0.200352 0.175316 -0.0359969 0.138031 -0.00928748 0.176113 -0.121022 -0.532824 -0.147051 -0.300154 0.270575 0.00400773 0.0665431 0.239499 -0.0101041 0.337206 -0.0519945 0.334079 -0.0603082 -0.0820636 0.504887 -0.108744 -0.00842973 -0.372226 -0.0882225 -0.089413 0.105733 0.172728 -0.288418 -0.260647 -0.125795 0.259703 -0.0355627 -0.091324 0.366776 -0.165171 -0.162041 -0.185613 -0.774106 0.211833 -0.13986 -0.170455
上 0.33102 -0.15772 0.113415 -0.236148 -0.181034 -0.225442 0.0940547 -0.15762 0.0423938 0.326738 0.376737 -0.179234 0.0265263 0.501393 -0.419606 -0.321917 -0.275984 0.183477 -0.0288017 -0.0124535 -0.0233577 0.124839 -0.531848 0.164064 0.542423 -0.289699 0.0151388 -0.162209 -0.086087 0.682055 0.0719099 -0.16662 0.173815 -0.0503723 -0.154168 0.205926 -0.379395 0.136978 -0.18334 -0.138862 0.221946 -0.199994 -0.0726175 -0.190613 -0.0434307 -0.289878 0.20982 -0.358367 0.409413 -0.0438408 -0.322514 -0.0179066 -0.0685753 0.217079 -0.130133 0.0370954 0.550943 -0.109804 0.192496 0.285378 0.15698 -0.0847744 0.342702 0.145318 0.092747 -0.297683 0.106989 0.0355731 0.203185 0.0236462 0.196841 0.342825 0.179691 -0.0766288 -0.0191159 0.017037 -0.160598 -0.286776 0.32441 -0.183884 0.34857 0.113932 0.455485 0.00683856 -0.030316 -0.246399 0.0469886 0.186073 -0.272616 0.229206 -0.136611 -0.151698 -0.693333 -0.268327 -0.00749233 0.328079 0.220412 0.121189 -0.113812 0.266624 -0.0745923 0.225474 -0.0414249 0.34135 -0.365263 -0.0259759 -0.192896 0.217453 -0.0892996 -0.154022 -0.0677976 0.152557 -0.472925 0.574419 -0.0298212 -0.372111 -0.0956768 0.223447 -0.132539 0.0736839 0.0852119 -0.354792 -0.200561 -0.267021 -0.178028 -0.484699 0.108234 0.0106645
大 0.285598 -0.200422 0.00988736 -0.0503033 -0.151173 -0.0783894 0.536055 -0.513854 0.0335505 0.113387 0.228777 -0.287881 -0.320574 -0.466445 0.304875 -0.067065 -0.248698 0.280357 0.213184 -0.0776073 -0.0992558 0.272513 -0.338284 0.218636 0.301122 -0.415903 0.143108 -0.194906 -0.0881176 -0.0244446 -0.252757 0.165534 -0.309698 0.136313 0.0721249 0.297795 0.223861 -0.287993 -0.0449291 0.206471 -0.387665 0.277545 -0.626395 -0.266162 -0.307825 -0.173225 0.104482 -0.105702 0.569799 -0.0391115 -0.49827 0.669515 -0.193372 0.0669671 -0.0609879 -0.394396 -0.107524 0.1722 0.658356 0.103741 -0.172419 -0.223579 0.0883461 0.213651 0.525316 -0.145866 0.399105 0.088779 0.27925 0.227355 -0.0671215 0.135056 -0.00406164 -0.071924 -0.0786763 0.178355 0.466594 -0.0273233 -0.273507 0.220245 0.285736 0.222339 -0.0109262 0.0280259 0.137063 0.00249931 -0.360296 0.290206 -0.541235 0.176898 -0.0310208 -0.22464 -0.244909 -0.186889 -0.180269 0.316895 0.143285 0.145313 -0.0287363 -0.0658801 -0.313765 0.0848534 0.193157 0.129903 -0.171891 -0.295113 0.080282 0.0107805 -0.152093 -0.288713 -0.00283706 0.0713762 -0.0666053 -0.262097 -0.0188285 -0.0218179 -0.208888 0.067104 -0.0525836 -0.102277 0.4495 -0.0761119 -0.224355 0.0360428 -0.207912 -0.0915363 0.0254662 -0.0840952
一 0.0217117 0.353661 0.293065 -0.131261 -0.408499 0.284074 0.466488 0.062591 0.178927 -0.201293 -0.0891036 -0.110113 -0.171279 0.100774 -0.409724 0.162835 -0.372387 0.377089 0.201435 0.0317646 -0.0565786 -0.115507 -0.15807 0.119489 0.335492 -0.263822 -0.230995 -0.379831 0.0751873 0.545886 -0.150285 -0.119287 -0.37521 -0.476276 0.208624 0.374685 -0.077831 -0.104744 -0.28872 -0.208264 -0.108822 0.0692469 -0.316571 -0.294684 -0.475904 -0.0561525 0.203416 -0.236004 0.353197 0.181152 -0.209203 0.379871 -0.204599 0.0345708 -0.0168879 0.199815 0.30534 -0.146325 0.231137 -0.217387 -0.0261934 -0.00784508 -0.0622541 -0.0448583 -0.208563 0.0767481 0.249933 -0.229585 0.0805211 0.0190302 0.0736506 0.0617956 0.320048 0.0671153 -0.172118 0.4201 -0.0991652 0.308149 0.167064 0.159727 0.236077 0.518382 -0.49934 0.355583 -0.431464 0.0433457 -0.180422 -0.0654669 -0.485191 0.388519 -0.176995 -0.060591 -0.452402 0.0265921 -0.220892 0.13434 0.0974917 -0.428038 0.110148 -0.260047 -0.604611 0.242491 -0.151202 0.202626 -0.179745 0.247053 0.36885 -0.0899892 -0.130904 -0.388585 0.118162 -0.06088 0.116068 0.183519 0.0372871 -0.255887 -0.0572523 0.113231 0.603476 0.169391 -0.195214 -0.341791 -0.155089 0.250652 -0.0279467 0.0103389 -0.267535 0.043397
台灣 0.313347 -0.359658 0.281179 0.207734 -0.275053 0.343554 0.183749 0.0838932 0.10496 0.511064 0.0222152 -0.091117 -0.118828 -0.133412 0.117194 -0.0130261 -0.282472 0.429982 -0.133268 0.217351 0.179442 0.0827521 -0.322635 0.162871 0.0650984 0.10073 0.182718 -0.0700479 0.104429 0.141468 0.0649052 -0.0962589 -0.119034 -0.269157 0.436535 0.271125 -0.264776 0.210739 0.164337 0.0142647 -0.0552311 0.180393 -0.194352 0.117949 -0.17817 -0.0765094 0.247409 -0.0294467 0.292876 0.107646 -0.51405 0.412666 -0.371084 0.388465 -0.00744291 0.253786 0.0972209 -0.0831766 0.0456558 0.210363 0.0815813 -0.159481 0.150194 -0.209877 0.340975 -0.056576 0.567229 -0.182936 0.129389 -0.251119 -0.19154 -0.0212075 0.000364849 -0.250762 -0.359302 0.162878 -0.00929302 -0.0594882 0.13214 -0.343397 0.2341 -0.136493 0.00377028 -0.12262 0.183695 -0.0906023 0.190726 -0.125054 -0.129314 0.0352845 0.449975 -0.296483 -0.149568 0.0244667 0.196978 -0.139957 0.127791 -0.360728 -0.320929 0.0973835 -0.0334706 0.410776 0.113934 0.292352 0.137643 0.07974 0.176559 -0.0373615 0.119965 -0.241825 0.243043 -0.24008 -0.302858 0.427714 -0.181379 -0.119896 0.0184066 -0.189188 -0.0563988 0.224192 0.1209 -0.231655 -0.0672674 -0.236415 -0.156398 -0.0586588 -0.00960635 0.444706
小 -0.0227843 -0.0676426 0.0219725 0.190911 -0.0865389 -0.371933 0.0474359 -0.514966 0.477309 0.0467076 0.475623 -0.176313 -0.164405 -0.290594 0.154273 0.228299 -0.316242 0.558144 0.294223 0.454116 0.0590747 0.0743629 -0.191902 0.201318 0.299466 -0.111743 0.321724 -0.129797 0.0226585 0.10067 -0.234592 -0.150316 -0.296871 0.177654 0.0587347 0.181332 -0.203573 0.236948 -0.297895 0.163926 -0.146267 0.0231063 -0.456538 -0.228033 -0.244001 -0.339357 -0.0221486 -0.273282 0.593237 -0.168008 0.0201151 0.23907 -0.490288 -0.0167359 -0.223886 0.0711919 0.158723 -0.0294912 0.279181 -0.205562 -0.350361 -0.441184 -0.00699683 0.0538998 0.105738 -0.252847 0.522179 0.266039 0.0884462 0.29335 -0.318437 0.135188 0.29581 0.296246 -0.09916 0.388397 0.225256 -0.0862561 -0.0823231 0.270831 0.425689 0.472602 -0.126775 -0.396322 -0.307667 0.291218 -0.233637 0.291838 -0.429075 0.494267 -0.0106678 0.103912 -0.0976803 -0.446621 -0.183827 -0.0389633 -0.145526 0.0562868 -0.0989158 -0.010096 -0.310825 0.276785 -0.210516 0.300298 0.0891025 -0.472194 0.221227 0.132691 0.154471 -0.162507 0.245245 -0.114983 -0.309412 -0.294825 0.0136645 0.0426917 0.00890216 -0.0786177 -0.149545 -0.118175 0.100021 -0.367486 -0.317197 0.165093 0.143931 -0.202043 -0.199073 0.397394
女生 0.141208 0.1712 -0.0985854 0.253637 -0.11923 0.0113972 -0.2199 -0.133542 0.48629 0.216761 0.243333 0.261983 -0.312524 -0.0748903 -0.271458 0.0148802 -0.325455 0.0894644 0.300016 0.10958 0.0611001 0.129477 -0.150119 0.408916 -0.147937 -0.626247 0.0919559 0.0536402 -0.365895 0.144999 0.163191 -0.0682905 0.207467 -0.443228 0.383943 -0.0905154 -0.0513821 0.119147 -0.0585699 0.267813 -0.469779 0.133003 -0.461962 -0.160325 -0.233155 0.131201 0.0266233 -0.181853 -0.106147 -0.313839 -0.087244 0.0423562 -0.145585 -0.153164 -0.0767345 0.037015 0.523125 -0.123957 0.327975 0.0440476 -0.230117 -0.205843 0.232765 -0.0208279 0.321247 -0.165406 0.147073 0.228269 0.507979 0.0803699 -0.156695 0.10244 0.204482 0.0677501 0.0188468 0.0325014 -0.124701 0.254463 0.00450497 -0.175305 -0.230126 0.150186 0.299053 0.10349 -0.0390649 -0.213104 0.165791 0.138575 -0.385019 0.351893 0.149487 0.0705354 -0.104223 0.0784249 -0.0934508 0.448753 -0.281869 -0.0802608 -0.550504 -0.150016 -0.0568028 0.421674 -0.20647 0.00854904 -0.144428 0.275715 0.278585 0.316517 -0.00380077 -0.409049 -0.0364905 -0.0449563 -0.333789 0.372326 -0.265138 -0.250142 -0.0414462 -0.09939 -0.241793 -0.22357 0.0224973 -0.653209 -0.423981 -0.109877 -0.149851 -0.0683398 -0.211017 -0.236661
八卦 0.114838 0.160041 0.149214 0.140228 -0.175596 -0.0986401 0.203706 0.223016 0.318473 0.0203237 0.313463 0.197159 -0.228285 0.0562387 0.165613 -0.00207905 -0.667263 0.328144 0.162341 -0.0238902 -0.190337 -0.0494243 -0.103714 0.245085 -0.203244 -0.225256 -0.0409285 -0.10225 0.0628299 0.440074 -0.0312397 -0.498186 0.314242 0.123106 0.233534 0.407442 -0.166081 0.206322 -0.169482 0.468019 0.104124 0.245665 -0.450017 0.210909 -0.286105 -0.334284 0.232615 -0.117654 0.107676 -0.0693877 -0.0878409 0.443766 0.20235 0.784853 0.0812803 -0.0709156 -0.0467695 -0.402502 -0.264336 -0.044595 -0.284517 -0.40803 0.0025523 -0.0798166 -0.118487 -0.301831 0.225455 0.139175 0.195872 -0.112037 0.0996331 0.361851 0.255508 0.265469 -0.215322 0.418872 -0.424858 -0.403528 0.448813 -0.174971 0.350532 0.330796 0.263887 -0.0650239 -0.256843 0.0375487 -0.0160161 -0.370422 0.144274 0.299921 0.00390027 -0.140504 0.255652 -0.176889 0.0223924 0.0832354 0.381291 0.00108263 -0.233051 0.515506 -0.248102 0.215764 -0.205344 0.236386 0.24736 -0.0725511 0.516138 0.182481 -0.251681 -0.422047 0.100497 -0.358674 -0.214011 0.183297 -0.208233 -0.405952 -0.0732399 0.026707 -0.0372559 -0.070927 0.351882 -0.319429 -0.0620637 -0.123583 -0.293865 -0.181014 -0.0703168 -0.13831
下 0.270916 0.0817403 -0.0849833 0.172954 -0.011449 -0.106261 0.303402 -0.284373 0.143628 0.256252 0.25165 0.0615304 -0.0733652 0.548441 -0.0295892 0.0821527 -0.269732 0.379675 -0.0654358 0.127898 -0.00285744 -0.011326 -0.335247 0.299384 0.29359 -0.0562871 -0.32082 -0.395915 -0.116957 0.218733 0.040814 -0.141113 0.0013533 -0.26729 -0.0162505 0.515346 -0.162685 -0.0356282 0.0519397 -0.378833 0.0547469 0.263937 -0.236932 -0.312663 -0.173092 -0.270055 0.012234 -0.0395077 0.0540854 -0.175702 0.0793153 -0.0317366 -0.0962013 0.0552518 -0.285883 -0.0370154 0.693904 0.146574 -0.0889845 -0.0767873 -0.251144 0.184995 0.140339 -0.117627 -0.207295 -0.344274 0.261674 0.529199 0.149452 0.0641368 0.145972 -0.0342508 -0.370937 -0.0219502 -0.337538 0.183961 0.61591 -0.284798 0.0209677 0.228718 0.203589 -0.0290556 -0.00713196 -0.21619 0.383977 -0.0415278 -0.114643 0.119851 -0.40372 0.0781686 -0.122819 0.28321 -0.679205 -0.363553 0.745112 0.0294206 0.488525 -0.260828 -0.0748695 -0.00828495 -0.340117 0.0709397 0.0384536 0.0341251 -0.0647107 -0.304373 0.127255 -0.200199 0.237067 -0.457061 -0.227786 0.205063 -0.238337 0.312734 0.115586 -0.0683761 -0.113664 -0.374414 -0.239548 -0.0343975 0.19775 -0.419412 -0.460531 0.0484332 -0.15021 -0.257709 -0.129457 -0.38657
餐廳 -0.107619 -0.110324 -0.137979 -0.0167464 -0.374315 0.166456 -0.134393 -0.0260928 0.533246 0.529316 0.146958 0.443317 -0.0915752 -0.245369 -0.121314 0.329477 -0.159096 0.189071 0.0366577 0.134836 -0.268904 0.206519 -0.29937 0.216413 0.155637 -0.801377 -0.0978613 -0.326955 0.0898524 0.248158 -0.137728 -0.418025 0.124734 -0.0680299 0.286809 0.0468626 -0.0681812 0.219294 0.0215735 0.0538124 0.206516 0.132209 -0.276 -0.0314507 0.142539 -0.190246 -0.148322 0.205958 -0.0240547 -0.00268626 0.0232778 0.425433 -0.0842501 0.315865 -0.256307 0.0680064 0.527808 -0.0642303 0.0578304 -0.0402854 -0.224419 -0.140579 -0.0372849 0.0627631 0.354806 0.237812 0.146556 -0.209211 -0.536069 0.341667 0.0856812 0.0448268 0.143436 0.090187 -0.375176 -0.0307364 0.127701 -0.0230923 0.12174 -0.229085 0.132791 -0.341833 -0.0623466 -0.0413237 0.0354056 0.218085 0.177446 0.111978 -0.414526 -0.269951 0.22743 -0.0615804 -0.181443 0.248429 0.328624 0.326618 -0.283246 0.0448358 -0.238827 -0.365828 -0.316185 0.255381 -0.011879 0.178304 0.0386539 -0.0737777 0.670318 -0.0983882 -0.485874 -0.187902 0.601325 0.0718279 -0.182422 0.365758 0.104179 0.011465 0.390916 -0.439468 -0.240828 0.027478 0.364662 -0.237797 0.0865102 -0.272838 0.0120553 0.000426875 -0.327592 0.0881811
高 -0.0969603 -0.375899 0.300306 -0.273903 -0.590842 -0.682015 0.139733 -0.339453 0.339637 0.355073 -0.00930992 -0.0907235 -0.366726 -0.238955 0.348875 -0.129132 -0.0132947 0.201158 -0.32204 0.594929 -0.20596 0.196782 -0.084035 -0.165998 0.19212 -0.058809 0.015074 -0.108737 0.0295652 0.160247 -0.2886 -0.0514163 -0.34698 -0.418865 0.499571 0.444287 0.0293977 0.0572756 0.243017 -0.107352 -0.514187 0.19626 -0.588845 -0.170501 -0.280808 0.115502 -0.116061 -0.0210194 -0.0841835 0.40312 -0.35784 0.358828 0.309256 0.0892026 -0.01702 0.170602 0.0490105 0.0601752 0.308248 -0.349473 0.184609 -0.261771 0.550955 0.274449 0.10727 -0.0940376 0.282586 0.0162318 -0.0873633 0.088713 0.373985 0.148374 0.455197 0.167715 -0.289681 0.119364 0.295004 -0.228958 -0.280147 -0.23675 0.0970222 0.301884 0.313793 0.0196356 -0.136559 0.0463443 -0.147903 0.183102 0.104661 0.330673 0.125241 0.146316 -0.318915 -0.202681 -0.264066 -0.13704 0.0623168 -0.206262 -0.460884 -0.371609 -0.255969 0.414587 -0.211838 0.183697 0.0819713 0.188281 0.420747 -0.171147 -0.255747 -0.551553 0.0721055 0.0829066 -0.66948 0.0170838 -0.215445 -0.184943 0.0454903 -0.0241066 -0.401876 0.523894 0.208364 -0.158363 -0.213819 0.177444 -0.139165 -0.0279551 -0.0100763 0.0276328
日本 0.207882 -0.0982944 0.362849 0.0412761 -0.192011 0.301377 0.272163 -0.0531218 0.107738 0.649918 0.167956 0.115861 0.1015 0.0433823 0.223542 -0.0366248 -0.480978 0.287855 0.203108 0.238925 0.338691 -0.0144667 -0.170776 0.271713 -0.174921 0.386626 0.369372 0.0546568 -0.0557577 0.212579 -0.0707635 -0.0252331 -0.160855 -0.408763 0.528687 0.108606 -0.301413 0.315524 0.0104625 0.255713 -0.191255 0.306475 -0.309449 0.140213 0.00682075 -0.295076 0.253121 0.0345473 0.360827 0.12943 -0.168939 0.310796 -0.0312561 0.358609 -0.275462 0.029728 0.148088 -0.230842 0.285531 0.33047 -0.128325 -0.0671885 0.395893 -0.332364 0.466854 -0.130336 0.755805 -0.208204 0.238278 -0.0339779 -0.354623 -0.444466 -0.193476 -0.458749 -0.441637 0.0873789 -0.256286 -0.119707 -0.108707 -0.017308 -0.0441125 -0.0249908 -0.0544584 -0.0675022 -0.109629 -0.178715 0.0129828 -0.0580318 -0.393733 0.348083 0.42566 -0.0700587 -0.197497 0.252613 0.0495817 0.0218737 0.202476 -0.142205 -0.241075 0.0148223 0.118805 0.294016 0.384905 -0.150337 0.0543224 0.119924 0.252822 0.260734 -0.00432041 -0.307681 0.36891 -0.120949 -0.552472 0.250755 -0.357816 -0.42419 0.107588 -0.116005 -0.0901757 0.133425 0.433354 -0.39717 -0.113142 -0.0222444 -0.0634561 -0.0870571 -0.117064 0.310484
家 0.00942977 -0.334615 -0.154985 -0.0166477 -0.535358 -0.108034 -0.071009 -0.295378 0.18696 0.452519 -0.106229 0.301881 -0.304367 -0.133625 -0.0160465 0.463759 -0.413425 0.528404 0.0778933 0.0288666 -0.0211478 0.0892829 -0.473559 0.10922 0.213266 -0.176716 -0.275276 -0.112901 -0.127366 0.0220388 0.193257 -0.10451 -0.352729 0.0901283 -0.149423 0.234018 -0.128158 -0.00818244 -0.342928 0.138539 0.0936356 0.402419 -0.414439 -0.177841 -0.0390646 -0.649875 -0.138227 0.102507 0.215178 0.18777 -0.0892292 -0.0919633 -0.16016 -0.23148 -0.00692435 0.144997 -0.204789 0.206469 0.280509 0.0672151 -0.196873 -0.330702 0.0710305 -0.0643776 0.16904 -0.5399 0.401701 -0.487641 -0.167136 -0.0581096 -0.101665 0.266643 0.243291 0.0687915 -0.117673 -0.0290446 -0.298729 -0.00841388 0.458212 -0.352229 0.396132 -0.0978224 0.253137 -0.210085 0.0578302 0.148008 0.036194 0.200302 -0.0828515 -0.136049 0.540074 -0.0299505 -0.472875 0.106553 0.00867605 0.0528897 0.080672 0.199595 -0.138944 0.326021 -0.209039 -0.148384 -0.0420564 0.851718 0.0425452 0.0909313 0.278912 -0.305309 -0.264894 0.135412 0.745977 0.0627986 -0.0938423 0.276454 0.115354 -0.231612 0.138062 -0.066408 -0.105793 -0.00300869 -0.118028 -0.340191 0.0257277 -0.0923083 0.1673 0.0382176 -0.462713 0.376264
錢 0.00288602 -0.337216 -0.113546 0.251613 -0.157032 0.142541 0.10209 0.0291553 -0.178428 0.0830546 -0.444685 0.0457321 -0.107749 -0.123565 0.19486 0.0635302 -0.354729 0.348112 -0.0639344 0.393868 -0.194015 0.214064 -0.0670082 0.0627843 0.111769 -0.368185 0.182847 -0.0557777 0.123401 -0.136034 0.232742 -0.242786 -0.0374022 -0.404838 0.311814 0.211349 -0.198139 -0.10773 -0.459467 0.0575229 0.258158 0.213185 0.164998 -0.658344 -0.0939905 -0.334215 0.208792 0.00843311 0.0271583 0.227335 -0.412529 0.214866 -0.0540727 -0.249449 0.250101 -0.232259 0.457947 -0.182303 0.339126 -0.148813 -0.192752 -0.613631 0.0501659 0.13846 -0.0455539 -0.176441 0.263683 -0.0153714 0.632891 0.124931 -0.0197934 0.214743 0.379059 -0.0802606 -0.148479 0.327764 -0.025574 -0.0420009 0.0148481 -0.325138 0.061915 0.0643768 -0.0875466 0.137317 0.197367 -0.0987667 -0.557758 0.472146 -0.153003 0.153618 0.205292 -0.637288 -0.195324 0.083429 0.243672 0.380102 -0.170316 0.160128 0.107326 0.195904 -0.256518 0.165031 -0.476861 0.233422 0.288696 -0.316006 0.516797 0.104806 0.126082 -0.460007 0.397852 0.0133176 -0.277596 0.656074 -0.0428128 -0.424486 -0.115275 0.271944 -0.203689 -0.0378107 0.393829 0.0420118 -0.0841054 -0.102534 -0.459151 -0.0354413 -0.394197 0.14415
噓 0.333318 -0.0539136 -0.137873 -0.0677501 -0.479368 0.402225 0.0981949 0.222034 0.261112 -0.11308 -0.240501 -0.0811632 0.0573865 -0.0868674 0.0392012 0.339069 -0.305102 0.219932 0.335829 0.136053 -0.258156 -0.327233 0.099368 -0.26157 0.298351 -0.307788 -0.166517 -0.236126 -0.0919345 -0.195107 -0.348129 -0.517677 0.0217252 -0.317733 0.243863 0.233659 0.275879 -0.0918847 0.232698 -0.00984097 0.403957 -0.025386 0.0546247 0.232595 0.210014 0.0479501 0.297651 -0.0384772 0.261097 0.147207 0.314085 0.315652 0.430897 -0.346058 0.264392 0.23855 0.135965 -0.365561 -0.00886386 -0.4974 -0.519565 0.108915 0.0641887 -0.106049 0.429552 -0.5885 0.361296 0.327816 0.423865 -0.516611 -0.154124 0.136666 -0.201422 0.276742 -0.255543 0.245779 0.143291 -0.0480625 0.133869 0.481035 0.0207743 0.150602 0.217155 -0.0142121 0.0106486 -0.0213923 0.407913 0.175664 0.396492 0.109978 -0.312866 -0.00817914 -0.307415 -0.494708 -0.0365108 -0.314514 0.0454109 0.0173657 0.0281646 0.177073 -0.00352878 0.363968 -0.0909337 0.242159 0.123416 -0.102359 0.818974 -0.195928 0.0337362 -0.418082 0.121983 -0.0870915 -0.282031 0.335827 -0.202593 -0.27109 0.0222321 0.246443 -0.376175 -0.247802 0.188182 -0.327568 -0.261874 0.0210801 -0.707952 -0.14278 -0.131705 0.287971
地 -0.0758943 0.216834 -0.318696 0.330994 -0.188048 -0.157654 0.496652 -0.35716 0.285465 -0.0334265 -0.155178 0.370495 -0.156401 0.0339407 0.0089949 0.250948 0.0527235 -0.0996318 0.305235 0.133013 -0.118922 0.503893 -0.256564 0.540926 0.134394 0.00447402 0.269567 -0.261449 -0.0491448 0.279784 -0.321259 0.113436 -0.356574 -0.535993 -0.10163 0.559094 0.111702 0.434717 -0.44649 -0.254718 -0.322909 -0.130823 -0.18268 -0.306417 0.127944 -0.0562283 -0.252751 -0.31083 0.241817 0.212267 -0.421741 0.156196 -0.177292 0.162954 0.0966002 0.150085 0.829346 0.108558 0.193667 0.0941293 0.166389 -0.274952 -0.196943 0.153628 -0.38306 -0.129584 0.454034 -0.120778 0.00613251 -0.321827 0.375648 -0.0128157 -0.0142477 -0.878965 -0.0160979 0.0536975 0.278331 0.0210661 -0.104024 0.121887 -0.0592811 0.0348892 0.493419 -0.309449 -0.040138 -0.0972033 0.0622645 0.134606 -0.183909 -0.0660457 0.0536781 0.272976 -0.0539999 -0.0687495 -0.0230294 0.276178 0.174023 -0.115577 -0.226983 0.211979 -0.387723 -0.0402568 0.182952 0.232457 0.346048 0.152143 0.231302 -0.162735 -0.0799338 -0.31195 -0.249637 0.888498 0.130259 0.466478 0.0217828 -0.204639 0.0546489 -0.19897 0.660371 0.029502 0.159892 -0.302482 -0.159249 -0.286357 0.0857081 -0.225184 -0.0860236 0.218861
台北 0.00934533 -0.186977 0.278457 0.494653 -0.305829 -0.0166855 -0.192072 -0.0371357 0.287947 0.137009 0.30323 -0.0834706 -0.303214 -0.0197695 0.107154 -0.202385 -0.598864 0.231755 -0.248081 0.369942 0.108294 -0.248311 -0.644321 0.306252 -0.252946 -0.0865465 0.093081 0.0111242 -0.259722 -0.0909602 -0.0628771 -0.15368 -0.251878 -0.128552 0.767798 0.172485 0.0901371 0.169757 -0.0538103 -0.264468 0.0848089 -0.093733 -0.316794 -0.439936 -0.00184895 -0.300848 -0.25986 -0.247498 0.377242 0.0872697 -0.778568 0.160086 -0.200848 -0.193639 0.0329562 0.147383 0.194725 0.269476 0.31285 0.12112 0.0437706 -0.299777 0.223801 -0.0394048 0.103447 0.000249035 0.741267 0.0577214 0.182366 -0.336679 0.128664 0.619377 -0.11747 0.0644959 0.051339 0.305039 0.224566 -0.318723 -0.0116896 -0.348939 0.00191086 -0.129805 0.319785 -0.210066 0.169699 0.120038 0.172531 0.0858472 0.353438 0.0212475 0.226148 0.0775745 -0.223133 -0.0818051 -0.0679874 -0.171526 -0.0609067 -0.437016 -0.197411 0.221455 -0.571681 0.231966 0.0786401 0.677266 -0.188272 -0.327303 0.243392 -0.271161 0.0829501 -0.193566 0.15748 0.00371588 -0.183122 0.257245 -0.00785108 -0.0590697 0.228835 0.0180955 0.175086 0.46403 0.417809 -0.143178 0.0937747 0.0780651 -0.102722 -0.0601594 0.0264316 0.641234
電話 0.0572293 -0.0228618 -0.700473 0.0249491 -0.0699518 -0.275284 0.17826 -0.271253 -0.100573 0.024135 -0.17848 0.112685 0.14937 -0.457095 -0.560633 0.252647 -0.191172 0.211302 0.000912304 0.179208 -0.0613004 -0.305338 -0.21609 0.178425 -0.111561 -0.128678 -0.445484 0.179512 0.428844 0.225294 0.17987 -0.0188078 -0.168717 -0.396524 0.324415 0.631004 -0.233613 0.182626 -0.194012 0.282513 0.392297 -0.224202 -0.0467338 0.0393661 -0.0713541 -0.0910917 -0.280758 0.155786 -0.103119 -0.0658098 -0.206584 -0.0819348 -0.332973 0.248907 0.353425 -0.0741385 0.244982 0.370324 0.01429 0.113933 -0.392943 -0.148931 -0.221962 0.657417 0.557873 -0.659311 0.00675604 -0.132786 -0.363186 0.114059 0.490013 -0.126763 -0.0341043 -0.0401144 0.00635858 0.376298 0.275636 0.42562 0.0623772 0.108754 -0.183914 0.0648383 -0.117414 0.0311202 -0.193282 0.479391 0.0445308 -0.195673 -0.244632 -0.00908922 0.306993 0.00578563 -0.305918 -0.0977811 -0.466316 0.187502 -0.462505 0.244146 0.383032 0.517904 -0.156816 0.442167 -0.611986 0.466825 -0.199848 0.297558 0.518675 -0.0363178 -0.102017 -0.163663 0.496831 0.163416 0.442895 0.39722 -0.445691 -0.373652 0.321692 -0.42748 -0.149507 0.0811964 0.263433 -0.389912 -0.0596103 -0.228169 -0.714041 0.218174 -0.116621 0.194746
寫 0.0870644 -0.0966471 0.174154 -0.18582 -0.0542635 0.0642749 0.20942 -0.0253938 0.098921 0.460057 0.00241064 0.0272057 0.0885367 0.0209632 0.0587518 -0.127825 -0.707028 -0.108673 0.11381 0.0153478 -0.535317 0.383043 -0.336054 -0.0465205 0.100341 0.170934 -0.358905 0.370959 0.171617 0.139301 0.30077 0.0594724 0.374259 -0.229187 0.216437 0.305168 -0.264035 -0.0291647 -0.386897 0.50991 0.190433 0.0856734 0.0968451 0.143479 -0.462743 -0.265008 0.174263 0.251085 0.428552 0.0267146 -0.120786 0.306205 -0.220241 -0.0202886 -0.359552 0.0624684 0.292662 -0.0541892 0.133732 0.0194465 -0.390801 0.308847 0.0333091 -0.139209 0.242496 -0.118881 0.477312 -0.167491 0.116589 -0.242551 -0.10727 0.152297 -0.132984 -0.196376 0.36989 -0.100659 -0.236688 0.074113 0.507508 0.11063 -0.0121136 0.088438 0.158829 0.0576067 -0.164102 0.294144 -0.0187221 0.460577 0.294086 0.354974 -0.0212886 0.357702 -0.422861 -0.461788 -0.00337817 -0.00923298 0.239652 0.119493 -0.010286 0.0148847 -0.239441 0.244983 -0.567988 0.179888 0.186516 -0.353653 0.152693 -0.000298343 0.0116094 -0.471838 0.12028 0.10723 -0.0758033 0.0135666 -0.476726 0.234861 0.22268 0.200746 -0.0172487 0.11036 0.0858049 -0.20244 -0.351496 -0.164707 -0.531705 -0.278304 -0.29513 -0.155727
女 0.126329 0.17207 -0.133543 0.232395 0.441355 -0.0104356 0.0436796 -0.256349 0.369323 0.418412 -0.0121955 0.192307 -0.584782 0.160574 -0.201232 0.275477 -0.0890926 -0.0885414 0.618573 -0.0873308 0.102571 0.0146268 -0.0839202 0.431724 -0.271448 -0.389864 0.000283996 0.0635695 -0.355336 0.153965 0.0100927 0.0813789 0.133562 -0.164061 0.103403 0.118558 0.101623 0.0285277 -0.121152 0.546529 -0.203645 0.0896544 -0.259917 0.238739 -0.363889 0.131348 0.353271 -0.134817 0.195933 -0.190709 0.432215 0.156301 -0.192144 -0.0925931 -0.0541319 -0.229648 0.399646 0.0227965 0.390768 0.283005 -0.325772 -0.413996 0.535996 -0.187819 0.187292 -0.279915 -0.0813114 -0.131865 0.270776 0.210127 -0.117909 0.0337628 0.092971 0.0946221 0.145285 0.0888742 0.0290134 0.180165 -0.184705 -0.0497538 0.252859 0.109242 0.119131 -0.0180223 0.223874 0.22718 -0.173527 0.404133 0.0482386 0.39925 -0.018209 -0.3112 -0.528687 0.141106 0.180368 0.105991 -0.500293 -0.0342156 0.0301679 0.146154 -0.188791 0.374935 -0.509189 0.170047 -0.232145 0.160601 0.181694 0.247722 -0.174933 -0.619283 0.316647 -0.14189 -0.307368 0.38267 -0.336211 -0.049768 -0.1712 -0.368451 -0.0341227 0.029961 0.313903 -0.396639 -0.553101 -0.0298025 -0.210504 -0.435923 -0.314405 0.261496
聽 0.0647518 -0.346581 -0.228989 -0.074302 -0.22122 -0.0583618 0.0125523 0.389548 0.693869 0.0902172 0.155465 0.100663 0.0114081 0.0440741 0.256123 0.235573 -0.508293 0.241613 0.327928 0.101939 -0.489019 0.269403 -0.0106912 0.0763263 0.263222 0.021472 -0.31026 -0.21377 0.242419 -0.356405 0.0579194 -0.0391234 0.264204 -0.112761 -0.0115494 0.792039 0.229774 -0.0374086 -0.276844 0.192201 0.105666 0.0877371 0.0382189 0.262232 -0.634066 -0.311644 0.000241114 0.238156 0.823704 -0.155493 -0.358792 0.166205 -0.174005 0.544457 0.340711 0.0990674 0.0278493 -0.0166569 0.0926542 0.211467 -0.278172 -0.198108 -0.0200191 -0.0635139 0.216381 -0.182423 -0.0471482 -0.0796518 0.150684 0.0827339 0.243262 0.0809418 0.0727787 -0.395375 -0.0561354 0.309304 0.0613701 0.0817255 0.114633 -0.0586908 -0.357732 -0.353763 0.057153 0.149315 -0.108378 -0.0268453 -0.234971 -0.254361 -0.266253 0.390583 0.29465 0.207659 0.151614 -0.452057 -0.232388 0.147974 -0.226798 -0.282602 -0.428286 0.417159 -0.0865352 0.26532 -0.228114 0.214696 0.0273383 -0.250238 0.661326 -0.131856 -0.335359 -0.0843147 -0.249986 0.0239295 0.271445 0.240267 -0.282048 -0.467651 -0.0505777 0.461116 -0.0709131 0.281282 0.102643 -0.634347 -0.208442 0.256745 -0.189963 -0.152779 -0.250599 0.0691883
女友 0.0717712 0.00128015 -0.0287004 0.254395 0.37469 0.106748 -0.280035 -0.0861519 0.301058 -0.034125 0.0895603 0.169924 -0.384906 0.054486 -0.138783 0.221014 -0.202371 -0.403251 0.44737 -0.18053 0.163987 -0.0642765 -0.218143 0.466116 -0.0634124 -0.424741 -0.245408 0.0598483 -0.321625 -0.244084 -0.0297255 0.078247 0.142462 -0.374675 0.118308 0.157574 -0.365068 -0.37349 -0.186244 0.423009 -0.283 0.317427 -0.502441 -0.356054 -0.128159 -0.245003 0.189787 -0.219909 -0.00430163 -0.172348 0.188578 0.0192065 0.0602068 -0.0338537 -0.153928 -0.177392 0.506876 0.0707948 0.0628381 -0.29196 -0.277622 -0.276979 0.183049 0.445562 -0.0444284 -0.38019 -0.113365 0.221565 -0.108434 -0.158053 -0.0728776 0.145387 0.104185 -0.00592878 -0.17714 0.296536 -0.0515033 0.385417 -0.0631998 -0.0844121 -0.193769 -0.383778 0.062678 -0.119539 -0.185582 0.147269 -0.0354705 0.0595663 -0.179844 -0.0703061 0.0677196 0.00572549 -0.315036 -0.350185 0.0474547 0.0717292 -0.36204 0.232926 -0.288358 0.0760727 -0.0546902 0.315763 -0.0806332 0.437818 -0.263777 0.217189 0.388343 0.368197 -0.092392 -0.228499 -0.0959502 -0.0604311 -0.108323 0.48015 -0.0548294 -0.51553 -0.12374 -0.134999 0.0431393 -0.346032 0.487368 -0.470998 -0.164995 -0.00391357 -0.0383718 -0.175501 -0.455588 0.342667
男 -0.154173 0.291955 -0.332757 0.113796 0.188821 -0.0892643 -0.277838 -0.0797208 0.31355 0.400024 -0.00833349 0.249541 -0.344486 0.223299 -0.307965 0.340674 -0.091071 -0.0876898 0.393828 0.0282915 0.0693136 0.0404714 -0.142505 0.433615 -0.23001 -0.187779 0.0949153 0.184088 -0.264931 0.254725 -0.0269669 0.21684 0.183262 -0.135307 0.0629784 0.205511 0.331895 0.0737316 -0.205078 0.301546 -0.452298 0.294547 -0.36756 -0.0861353 -0.138139 0.0161044 0.513741 -0.0080302 0.0614734 -0.357043 0.415373 0.0143219 -0.109593 -0.178131 -0.0694997 -0.415706 0.306262 0.0965795 0.142279 0.202322 -0.310626 -0.445934 0.570141 -0.028835 0.173107 -0.267505 0.0350871 0.04954 0.170921 0.0178621 -0.304836 0.0366612 0.12505 -0.0666515 0.160439 0.183225 0.22453 0.368513 -0.129602 -0.00343597 0.136127 0.067909 0.0756238 -0.084475 0.18175 0.089254 0.09473 0.22888 0.174929 0.296477 -0.0480146 -0.0517801 -0.540031 0.0541694 0.200845 -0.0258915 -0.308148 0.165527 -0.151446 0.0424868 -0.273676 0.374641 -0.4983 0.407035 -0.342872 0.262315 0.276095 0.348673 -0.039033 -0.56087 0.368179 -0.118223 -0.202476 0.347571 -0.47425 -0.0223844 -0.146026 -0.524259 0.0964845 -0.0236788 0.201529 -0.413401 -0.449735 -0.046348 0.0868058 -0.447673 -0.411172 0.152333
男生 0.0897406 0.147328 -0.0776467 0.277297 -0.16671 0.00460935 -0.225652 -0.0396257 0.570776 0.26061 0.265315 0.229021 -0.14791 -0.0552193 -0.357229 0.0459086 -0.26632 -0.00974316 0.137819 0.176802 -9.07358e-05 0.191366 -0.122465 0.322026 -0.401895 -0.656244 0.186356 -0.0380684 -0.399859 0.209584 0.104999 0.0615504 0.219317 -0.572966 0.395771 -0.092315 -0.197606 0.00939803 -0.0478036 0.387647 -0.411088 0.266209 -0.318429 -0.0775313 -0.229031 0.430973 0.0582898 -0.214718 -0.243436 -0.379898 -0.227886 -0.0712222 -0.0940478 -0.204354 0.0833296 0.146468 0.381795 -0.0841915 0.440481 0.0204314 -0.334999 -0.182354 0.158306 0.0565505 0.404767 -0.225707 0.289264 0.24132 0.255154 0.0473266 -0.244151 0.215744 0.283486 0.106475 -0.0386767 0.00204758 -0.23147 0.147245 0.0203468 -0.134229 -0.248554 0.160018 0.180071 0.136312 -0.0774832 -0.244056 0.183708 0.274342 -0.497878 0.399652 0.0992967 -0.0268927 -0.240131 0.12617 -0.0413723 0.404152 -0.236425 -0.0067314 -0.562047 -0.0658439 -0.0574321 0.341166 -0.323551 0.018088 -0.207735 0.21741 0.126348 0.178039 -0.131977 -0.286733 -0.0955381 -0.0192625 -0.340726 0.287204 -0.304019 -0.277163 0.0461251 -0.0193316 -0.406862 -0.307639 -0.0143315 -0.734636 -0.476327 -0.175927 0.0122825 -0.01792 -0.376209 -0.0625249
中國 0.341397 0.126492 -0.00586301 -0.038691 -0.206216 0.241636 0.494051 -0.338226 0.0157977 0.47697 0.324925 -0.258186 0.178299 -0.0957081 -0.0234784 0.00218435 -0.140909 0.594967 -0.136985 0.163789 0.349004 0.141038 -0.343342 -0.100628 0.0179719 0.213539 0.167829 0.112996 -0.0146054 0.153974 0.280027 0.152165 0.0328824 -0.536244 0.72247 0.0588335 -0.0578388 0.338058 -0.279562 -0.152973 0.0459079 -0.0183444 -0.144719 0.0620554 -0.2615 -0.370599 0.349232 0.237684 0.213259 0.282827 -0.126758 0.341469 -0.0532076 0.217276 0.0873136 -0.129392 0.275127 -0.223865 0.492765 0.0060802 -0.0741815 -0.0471705 0.315116 -0.08886 0.535292 -0.123008 0.544517 -0.146171 0.134959 0.223433 -0.178856 -0.0852046 -0.0478707 -0.256921 -0.224399 0.455173 -0.214873 -0.158666 0.00781483 0.134181 -0.0464668 -0.302643 -0.207353 -0.14889 0.260338 -0.318501 0.0990493 -0.0242389 -0.241118 0.362974 0.266918 0.193313 -0.153874 -0.0393649 0.37482 0.101687 0.00867688 -0.108254 -0.153545 0.386387 0.0399396 0.417883 0.340863 0.352082 0.0976068 0.139326 0.206453 0.245211 0.133936 -0.125176 0.360061 0.0721618 -0.23277 0.121754 -0.659234 -0.361914 0.153756 0.0834346 0.0189532 0.110537 0.102949 -0.371428 -0.331501 -0.194314 -0.126772 -0.106242 0.0383038 0.484064
工作 -0.113632 0.120604 0.0598471 0.0839117 0.0207443 0.022171 0.160062 -0.0191566 0.14483 -0.412638 -0.011072 0.385372 -0.123075 -0.180179 -0.509001 0.379024 -0.543811 0.530117 -0.283931 0.414105 -0.0082986 0.375256 -0.470132 0.250194 0.0355345 -0.132061 -0.00488071 -0.288822 0.139741 -0.218821 0.313586 -0.0397872 0.099231 -0.670716 0.406645 0.44931 -0.265023 -0.130891 -0.129593 0.507528 -0.15853 0.492625 0.00449308 0.000268739 -0.0192733 -0.601806 0.0264161 0.26539 -0.311112 0.117755 -0.302974 0.114041 -0.278319 0.0782532 -0.159652 0.0488718 0.458131 -0.195513 0.402197 -0.303117 -0.269508 -0.0473869 0.204559 0.0962946 0.0509847 -0.244324 0.266655 -0.0869476 -0.231273 0.00142817 -0.138443 0.493585 0.104347 -0.323301 -0.0170201 -0.0514174 0.374801 0.12705 0.518155 -0.03516 0.0468898 -0.250934 0.135235 -0.303403 -0.365933 -0.048591 0.33512 0.252116 -0.169561 -0.269559 -0.178771 -0.26047 -0.209022 0.142683 -0.15914 -0.0133046 -0.108313 -0.0234 -0.531518 -0.2984 -0.189041 0.322616 -0.240603 0.295136 0.0833525 0.077721 0.157006 -0.0835548 0.203656 -0.0258429 -0.0640015 0.371138 -0.379681 0.55329 -0.287273 -0.165689 0.44282 -0.225004 -0.229864 0.212332 0.273474 0.0664285 0.12095 -0.0516341 -0.0121464 -0.114035 -0.224814 0.58522
香 -0.00226071 -0.367237 0.496019 0.263753 0.0733813 0.120985 0.340127 -0.112589 0.290071 0.53222 0.143953 -0.247088 -0.0751004 -0.0986692 0.040294 0.426155 -0.150938 0.114977 0.464663 -0.00322149 -0.0152602 -0.0336384 -0.238624 0.404513 0.0628851 0.427001 0.190302 -0.0843168 -0.18293 -0.192004 -0.358758 -0.119123 -0.339205 0.242763 -0.00202864 -0.0933741 0.219246 -0.0499779 -0.448913 0.379797 -0.30959 0.195994 -0.368071 -0.158355 0.00270254 -0.216727 0.607925 -0.356059 0.184166 0.0762862 -0.6004 0.55804 0.057304 -0.189995 0.141045 -0.0673499 0.604085 -0.274714 -0.00611942 -0.222758 0.287071 -0.352619 0.057488 0.0493253 0.359319 0.0141977 0.0644941 0.120125 0.128254 -0.0119345 0.310569 -0.170588 0.282457 0.312431 -0.0890072 0.126858 0.0942532 0.130429 0.0337976 0.00383125 -0.107049 -0.103764 0.0125585 0.117091 -0.237066 0.482619 -0.10868 0.0177129 0.406504 0.403584 0.326536 0.223557 0.0284646 -0.00594882 -0.0382411 -0.498563 -0.00228167 0.0453822 0.388049 0.062471 0.305977 0.433666 -0.153012 -0.0753619 -0.15862 0.0765362 0.300392 0.304359 -0.561627 -0.510985 0.0308718 0.010172 0.0261241 0.525522 -0.280438 -0.461363 0.0180709 0.148992 -0.166595 -0.126187 0.456128 -0.126992 -0.165792 -0.282546 0.0347662 0.1233 -0.426403 -0.55913
美國 0.336845 -0.237504 0.0844885 0.179721 -0.220696 0.113989 0.604977 -0.409664 -0.112312 0.237579 0.024502 0.0962896 -0.124357 -0.163023 0.243717 -0.0337107 -0.149599 0.339732 -0.229883 0.270084 0.0478714 0.0273389 -0.289709 0.2163 -0.137828 -0.230337 0.265397 -0.180731 -0.123128 0.170273 0.135686 0.0987985 -0.0600453 -0.364616 0.581224 0.316823 -0.443749 0.165625 -0.0129999 0.138874 0.304783 -0.0761754 -0.200695 0.0494132 -0.358448 -0.277359 0.178144 -0.0268821 0.230165 0.052917 -0.289417 0.315636 0.244289 0.263167 -0.270116 -0.0703426 0.366644 -0.342934 0.265041 0.09717 0.108841 0.106362 0.223315 -0.0538889 0.3211 0.070488 0.753078 -0.282633 0.162887 0.124652 -0.0788438 -0.0851219 0.336622 -0.408173 -0.269433 0.381815 -0.233178 0.16879 -0.212467 0.103602 0.133876 -0.427005 -0.0925373 0.00387306 0.0600254 -0.188981 0.199804 -0.0887926 -0.184511 0.137939 0.324228 -0.0044005 -0.506463 0.169908 -0.000117606 -0.104418 0.103569 -0.144835 -0.316883 -0.0586915 0.044988 0.363493 0.541667 0.174925 0.0663923 -0.052152 0.145324 -0.0225445 0.150808 -0.165592 0.282019 -0.175185 -0.112658 0.179067 -0.399773 -0.387071 0.223049 0.00968895 0.0618975 0.192696 -0.106111 -0.0608244 -0.19914 -0.252726 -0.203253 -0.045477 -0.0753949 0.525833
天 -0.202429 0.27562 0.317254 0.281747 -0.0883934 -0.181053 0.174656 -0.118549 0.316586 0.246482 0.185781 0.0762921 0.179747 -0.170255 -0.163934 0.354249 -0.40632 -0.276579 0.223048 -0.0774498 0.487236 -0.0850074 -0.490636 0.677851 0.261766 -0.022864 -0.168431 0.0101192 0.00516408 -0.0336623 0.0727688 0.0529715 -0.189672 0.0533559 0.0304671 0.353211 0.104102 0.105537 -0.368552 -0.0886853 -0.0504501 0.211794 -0.0754834 -0.275056 -0.558345 0.0221043 -0.324687 -0.330318 0.144575 -0.00816651 0.208865 0.273751 -0.0148678 0.124969 -0.148812 0.0677604 0.172679 0.0374548 0.587561 -0.252686 0.182829 0.188583 -0.148475 -0.220679 0.450364 -0.0651363 0.442108 -0.423789 -0.0639632 -0.161006 -0.232065 0.196719 -0.373953 0.266176 -0.190985 0.167619 0.221615 0.111122 -0.00060838 -0.203432 0.22913 0.0310844 -0.394789 0.315535 0.0776987 -0.064827 0.25881 -0.145055 0.3983 0.350931 -0.135554 0.347845 -0.489052 0.388012 0.047974 -0.485318 -0.197637 0.178121 -0.297515 0.374336 -0.20857 -0.206649 0.104284 0.511881 -0.0128578 -0.192504 0.435845 -0.0292712 -0.326517 -0.561684 0.0535367 0.385903 -0.307034 0.455184 -0.0323243 -0.368942 -0.300176 0.277124 0.0744744 0.32792 0.0502778 -0.291187 -0.131756 0.183508 -0.0128234 -0.0521146 -0.485267 0.105558
跑 0.289266 0.084777 0.0569754 -0.16087 0.244394 0.0660414 -0.177004 -0.0893345 0.238739 -0.0143635 0.117889 0.349552 0.0439471 0.0414226 0.175698 0.204839 -0.421838 0.467779 0.117293 0.677126 -0.120423 0.15847 -0.304186 -0.142247 0.458154 -0.206939 -0.258489 -0.123134 -0.16927 -0.0498849 0.291433 -0.0310782 0.10295 -0.220786 0.304853 0.0758822 -0.168155 0.569146 0.0834683 0.358943 -0.0192508 0.191759 -0.0604128 -0.200511 -0.25394 -0.0053194 -0.258924 -0.417318 0.436574 -0.00343384 0.0904356 0.0488453 -0.315623 -0.0822071 0.343142 -0.0102316 0.680943 0.0910327 0.694524 -0.0314279 -0.0567208 -0.114705 -0.0983198 0.227023 0.00590265 0.0689175 0.432553 -0.100614 -0.000683042 0.0437939 -0.0752114 0.33837 0.0537383 -0.390784 -0.274285 0.0623857 -0.0161786 0.0847513 0.063087 0.150406 -0.196223 0.0695557 0.0287448 0.361419 -0.428757 0.290536 -0.128995 0.160249 0.274546 -0.189287 0.278546 -0.140638 -0.109723 -0.140323 0.0160039 0.131076 0.0430794 -0.0438374 -0.352599 -0.294011 -0.22081 0.440935 0.0706976 0.41422 -0.130069 -0.0542039 0.220053 0.0231293 -0.143574 -0.607892 0.487851 0.292108 0.0530129 0.0855643 0.0647036 -0.410233 0.014804 0.521098 -0.0167705 0.0514105 0.0163557 -0.129181 -0.138047 -0.106587 -0.25022 -0.218188 -0.461136 -0.0589458
茶 0.221027 -0.183694 -0.0548802 0.537062 -0.137137 0.080508 0.0170568 0.0374081 0.4765 0.540399 0.29759 -0.172166 0.0295745 0.356323 -0.044832 0.51504 -0.164336 0.00859779 0.127594 0.189455 -0.0222025 -0.225614 -0.181891 -0.185405 0.0147368 0.379754 0.113713 0.184156 -0.296188 0.0826473 0.120962 -0.468567 0.00587781 -0.166786 -0.17477 0.238876 0.271485 -0.447947 -0.817298 0.0349501 0.0323894 0.207519 -0.729996 -0.10189 0.195255 -0.0999931 0.112094 -0.0954919 0.31891 0.458893 -0.246002 0.444705 0.198024 0.0335619 0.113761 0.265925 0.325996 -0.480127 -0.176049 0.0238937 -0.0661412 -0.330608 0.276865 -0.236479 0.568001 -0.0709954 0.17249 -0.406215 0.0346775 -0.0309455 0.311195 -0.0824108 0.152065 0.0951204 -0.2239 0.0133963 0.0808547 -0.0218665 0.0470723 0.263024 -0.105624 0.136782 -0.126709 -0.165837 -0.485378 -0.185256 -0.183004 -0.093223 -0.251296 0.095433 0.294196 -0.433599 -0.269569 0.113941 -0.131446 0.138732 -0.789974 0.0254323 -0.344608 -0.142156 0.0517633 0.0706666 -0.141098 -0.257301 0.349946 -0.25264 0.324612 -0.252089 -0.270985 -0.0372246 0.0575922 0.400712 -0.0111491 0.815494 -0.262478 -0.153276 0.370613 -0.258651 -0.196261 0.129887 0.351076 -0.140704 -0.352673 -0.474398 0.0972087 -0.202483 -0.132358 -0.524926
飲料 0.246473 -0.26616 -0.320029 0.223249 -0.289531 0.208387 -0.0711987 -0.0658838 0.176781 -0.00848128 0.168255 0.281334 -0.236623 0.0306453 -0.365009 0.159291 0.0692157 -0.457866 -0.0448113 0.55499 -0.182182 0.164205 -0.502375 -0.221651 0.0790048 -0.239275 -0.100391 -0.03084 -0.21266 0.307158 0.361706 -0.238832 -0.0211618 0.325873 0.0203187 -0.0661178 0.136571 -0.259422 -0.642914 -0.117886 -0.076754 0.40425 -0.295258 -0.0767431 0.239147 -0.256251 0.443305 -0.250449 0.199459 0.177857 -0.122763 0.168982 0.0159662 0.380859 -0.103565 0.423333 0.597323 -0.182654 0.0469741 0.14911 -0.15881 -0.243468 0.0097719 0.0186433 0.604465 0.241843 0.54807 -0.501089 -0.0513816 0.199194 0.0946017 0.157583 0.154233 0.118928 -0.224874 0.344899 0.0842975 0.164063 0.0857417 0.0119581 -0.141613 0.0767185 -0.164775 0.117645 -0.25328 -0.0376941 -0.213004 0.166759 -0.307231 -0.057077 -0.0317453 0.0495963 -0.147544 0.0862838 -0.31695 -0.0276633 -0.287491 0.265838 -0.379662 -0.218181 -0.133066 0.356163 -0.586291 -0.0919495 0.170864 -0.303386 0.259901 -0.430809 -0.100305 -0.0109145 -0.00195419 -0.0119881 -0.212456 0.322449 -0.257541 -0.519926 0.35543 -0.387899 -0.102778 -0.0412179 0.285943 -0.119876 -0.0293703 -0.489603 -0.138391 -0.122026 -0.245591 -0.0435544
媽媽 0.199992 0.0170684 -0.0733114 0.384986 -0.0124946 -0.0952671 -0.0432916 -0.308684 0.558562 0.159034 0.0273771 0.13995 -0.332171 -0.203897 0.202253 -0.24585 -0.202708 0.342587 0.458206 -0.0804436 -0.182901 0.440346 -0.0835329 0.257747 0.0314474 -0.379405 -0.233745 -0.0333407 0.0537466 0.0109936 -0.181948 0.273453 -0.0453287 -0.123519 0.0507759 0.306571 -0.0636232 0.172969 -0.149055 0.246453 0.24899 0.256818 -0.270899 -0.195423 -0.372305 -0.343573 0.217332 0.109693 0.16348 -0.0919631 0.195304 -0.232996 0.00456007 -0.177363 -0.426575 -0.178312 0.522865 -0.204711 0.00786621 -0.438101 0.34447 -0.352941 -0.0370859 0.324075 0.246541 -0.53063 0.238031 0.030441 0.374037 -0.467511 0.31097 0.0458503 0.0289643 0.140904 0.0309847 0.115341 0.274206 -0.0544846 0.289351 0.213461 0.229741 -0.0517268 0.216534 -0.361405 0.00588169 0.152877 -0.177961 0.540755 -0.24443 0.130042 0.186589 -0.121146 -0.0833814 -0.208944 -0.222654 0.0790761 -0.0784153 0.0757271 0.0228162 -0.039963 0.110814 0.252406 -0.366444 0.422154 -0.16165 0.153707 -0.038654 -0.0837364 -0.277321 -0.27492 -0.0696639 -0.0605048 0.042671 0.174119 -0.369924 -0.564092 -0.0458803 -0.125933 -0.316753 -0.367225 0.17785 -0.584799 0.0617596 -0.0143343 0.338249 0.00875276 -0.439857 0.558562
老師 -0.206196 -0.134997 -0.275783 0.0668127 -0.354661 -0.259514 -0.0744815 -0.211721 0.765614 0.415175 0.284882 -0.172472 -0.415082 -0.0890953 0.283462 0.112176 -0.410515 0.117363 0.306813 0.111692 -0.199933 -0.00257083 -0.494398 0.539669 0.0850632 -0.408965 0.280987 0.0677102 0.0563705 0.311951 0.241508 0.60057 -0.0688899 -0.104416 0.0650646 0.183079 -0.210663 0.181141 0.0245907 0.12479 -0.00594229 0.223228 0.188959 0.219622 -0.272613 0.136885 -0.0119956 0.340698 0.480752 0.235255 -0.041694 0.0414634 0.204388 -0.132767 -0.37346 0.10821 0.439374 0.0864182 0.2528 0.186143 -0.349096 -0.0453438 -0.0497921 -0.226391 0.231023 -0.295192 -0.213373 0.0433745 -0.0397746 -0.234647 0.0640884 0.0419825 0.428038 0.134968 -0.0653678 0.195903 0.35111 0.267085 0.166609 0.27023 -0.140203 0.0941852 0.135407 -0.111958 -0.0346949 0.302239 0.313184 0.408922 -0.514387 0.142629 -0.180708 -0.141096 -0.241944 -0.0938702 -0.296625 0.27447 0.161243 -0.0653596 -0.317048 0.167241 -0.343577 0.126052 -0.452875 0.11317 -0.115133 0.136438 0.175668 0.0427587 -0.0398914 -0.254991 0.0491372 0.366075 -0.353436 0.201332 -0.579245 -0.289789 0.235418 -0.3292 -0.0521333 -0.03988 -0.204777 -0.330256 -0.198878 0.0677544 -0.169663 -0.0231086 -0.505518 0.455997
男人 0.159583 0.402388 -0.205482 0.180334 -0.50755 0.0226996 0.0630119 -0.187655 0.341736 0.152133 0.409513 -0.204404 -0.169794 -0.0300934 -0.166181 0.111236 -0.533555 -0.00291201 -0.0548279 -0.099398 0.158776 0.241024 -0.024095 0.195243 -0.183451 -0.611321 0.130841 0.147407 -0.375902 -0.201586 0.192203 0.150659 -0.136105 -0.502916 0.126376 -0.0256498 -0.0994982 -0.262414 -0.158711 0.0584892 -0.315147 0.404985 -0.566581 -0.184803 0.012185 -0.00623486 0.203298 -0.111633 -0.226008 -0.294799 0.0270706 0.115992 -0.0800522 -0.23239 -0.138835 0.0536303 0.428171 -0.369911 0.0472023 -0.167472 -0.382202 -0.35429 -0.0255021 0.257248 0.435905 -0.0889892 0.242526 0.121788 0.408053 0.0913321 0.215265 -0.0415602 -0.0414923 -0.0503674 0.169077 -0.100249 -0.148175 0.223453 0.117462 -0.44077 -0.17565 -0.0846029 0.0329547 0.0861026 0.0906067 -0.220408 0.0835884 0.44067 -0.186208 0.317264 0.098107 -0.103559 -0.0440709 0.277704 0.0891027 0.184569 -0.37569 0.0120166 -0.339243 0.231418 0.283363 0.326602 -0.0239885 0.468185 -0.179261 0.411065 -0.0827625 -0.0455436 0.0800957 -0.495103 -0.202955 -0.0549954 -0.217976 0.0313423 -0.106749 -0.457169 -0.289515 0.0444418 -0.344383 -0.202452 0.0660422 -0.712223 -0.371292 -0.333815 -0.388316 -0.219437 -0.455032 -0.0568153
魚 0.0163764 -0.0180187 0.0541491 0.16285 -0.312485 0.64138 -0.264048 0.177197 0.320899 0.316029 0.15309 0.206987 -0.378888 0.0150395 0.0533842 -0.105183 0.0769537 -0.0835976 0.366317 0.105896 0.168175 0.264594 -0.0597921 0.168855 0.376797 0.186292 0.0216847 -0.0172666 0.254757 0.218661 -0.185329 -0.074292 0.0420029 -0.0593351 -0.124706 0.280066 -0.184832 0.272762 -0.177276 0.00655585 -0.390038 0.13614 -0.282837 -0.277141 -0.0502466 -0.111296 0.571457 -0.584719 0.0794652 0.0154911 0.136259 0.468945 0.186023 0.236233 0.203619 0.12329 0.516605 -0.555867 0.368322 -0.00673274 -0.428808 -0.0382764 0.0578488 -0.378443 -0.156463 -0.116895 0.553581 0.32317 0.698281 -0.0111576 -0.223871 0.204261 0.127337 0.444464 0.117325 0.675854 -0.162845 -0.392383 0.0430162 0.000524541 0.22278 -0.178104 -0.58214 -0.28637 -0.238642 -0.0649383 0.1149 0.699761 -0.0337197 0.0237991 0.362886 -0.403594 -0.414558 -0.200322 0.377502 -0.311507 0.0479356 -0.03634 0.170429 -0.212216 0.395272 -0.105781 -0.10566 0.030222 -0.116945 0.0251795 0.484079 -0.232838 -0.313848 -0.377374 0.257139 0.135711 -0.158049 0.533017 -0.203474 -0.120296 0.188661 -0.331546 0.238959 -0.267493 0.228118 0.467787 -0.177186 -0.135066 -0.332311 -0.169163 0.190677 0.0530938
手 0.0981753 -0.0353738 -0.341206 -0.0503263 -0.0934056 0.26623 0.533087 -0.0755289 0.472515 0.232192 0.220507 0.305598 0.103335 -0.0391639 0.000120186 0.335974 -0.281935 0.21654 0.256287 0.150234 0.0886805 0.382459 -0.207087 0.0863099 -0.0210557 0.0352711 0.0710609 -0.140316 -0.0766306 -0.039565 -0.330243 -0.0363811 -0.109236 -0.287914 0.0129913 0.267505 -0.58107 0.0595261 -0.614769 0.0150019 -0.0733197 -0.0165163 -0.0774444 -0.628574 -0.242288 -0.11094 -0.208647 -0.167673 0.492673 -0.462333 0.00760136 -0.726156 0.210616 0.195327 0.128374 -0.0249678 0.281314 0.426908 0.0288163 0.0653655 -0.274922 -0.228077 0.191039 0.149488 -0.0656492 -0.285845 0.118838 0.104582 0.108608 -0.30159 0.351759 -0.123557 -0.063256 0.22659 -0.237533 0.518628 0.148489 0.123965 0.0768975 0.235138 0.205571 0.0861162 0.145965 0.214389 -0.385748 0.0683491 0.055414 0.0760115 -0.178292 0.544351 0.146218 -0.260968 -0.18371 0.563772 0.520157 -0.228733 -0.122807 -0.128655 0.0124772 -0.0839221 -0.108554 0.0756029 -0.171929 0.592773 0.0727344 -0.356056 0.132197 -0.215123 0.0388049 -0.321131 0.359689 0.0346962 -0.0762858 0.209748 -0.185015 -0.172135 -0.123656 0.206826 0.284758 0.0119726 0.357098 -0.104557 -0.38584 -0.0337741 -0.112623 0.191513 -0.221491 -0.175603
麵包 0.218322 -0.0555049 0.0666559 -0.0515198 -0.392576 0.349779 -0.0596428 -0.173001 0.173644 0.172422 0.427123 0.196335 -0.309957 -0.12035 0.170289 0.359136 -0.213841 -0.44289 -0.0530178 0.128214 -0.147922 0.193159 -1.00457 0.202047 0.262376 0.243006 0.018812 0.0393584 -0.0759361 -0.25688 -0.0586211 -0.300238 -0.0808158 -0.160119 0.0642114 -0.17051 -0.272102 0.606491 -0.258822 0.340219 -0.162373 0.117758 -0.773953 -0.0519227 -0.183631 -0.619914 0.0954708 -0.126447 0.0575624 -0.0944438 0.173252 0.195658 0.236278 0.108582 0.200198 0.193693 0.746211 -0.031957 -0.233386 -0.0577488 -0.415582 -0.381024 -0.322121 0.0438559 0.102491 0.579279 0.00964192 -0.413512 -0.0702139 -0.226173 -0.0699835 0.155861 0.0674874 0.0508915 -0.0683985 0.133611 0.33752 0.129413 0.231745 0.131407 0.743859 -0.0114127 -0.238944 0.333729 0.0343573 0.253318 -0.0801711 0.0400346 -0.181823 0.284005 0.181616 -0.0798301 -0.370237 0.344711 0.13678 -0.417098 -0.177704 0.354931 -0.350398 -0.100274 0.0121417 0.36195 -0.467088 -0.461194 -0.0199166 -0.271271 0.246249 -0.104931 -0.135693 0.450662 0.460778 -0.381001 0.227081 -0.0940103 -0.453259 -0.0168306 0.39242 -0.158499 0.251377 0.0259032 0.312914 -0.166964 0.0359252 -0.0307981 -0.12416 -0.298836 -0.730533 -0.231238
結婚 -0.0872937 0.0120662 -0.108583 0.127882 0.313551 -0.276329 0.0212562 0.101592 -0.260182 0.235966 0.1518 0.241365 -0.529366 0.181504 -0.300984 0.189528 -0.229188 0.326072 0.0186893 -0.0627607 -0.142093 -0.0163175 0.125909 0.467371 0.197991 -0.081514 0.129025 -0.054349 0.0702141 -0.156463 -0.197589 -0.615201 0.0700191 -0.370133 0.26433 0.127878 -0.701104 -0.476007 -0.435971 0.417086 -0.397707 0.22424 -0.220809 0.0693898 -0.165954 0.0494114 -0.0555917 0.236614 -0.0522425 -0.348186 -0.301502 0.0372168 -0.0738983 -0.270471 0.152211 -0.23615 0.224867 -0.174997 -0.00812936 -0.256089 -0.292075 0.180222 -0.0345669 0.181267 0.498674 -0.183466 0.529947 0.0664907 0.0220534 -0.412059 -0.397716 0.25948 0.000882083 -0.126416 -0.376141 0.289428 0.429869 0.286489 0.656175 -0.345178 -0.0567362 -0.380904 0.163109 0.17724 0.556628 0.046131 -0.276531 -0.151758 0.0370081 -0.00867795 0.135268 0.0505643 -0.23252 -0.456964 0.0526385 -0.154144 -0.733103 -0.140448 -0.0398473 0.326453 -0.0662355 0.181726 0.316067 0.342567 -0.251802 0.143013 0.00619626 0.0255941 0.0415296 -0.404935 -0.226479 0.239899 -0.319806 0.346218 -0.301438 -0.495999 0.0487205 -0.1431 -0.307345 -0.171462 0.146951 -0.492292 -0.435353 -0.312242 0.359193 -0.19037 -0.365263 0.374928
白 0.170427 0.050014 -0.126004 -0.234039 0.151436 -0.0615562 0.426508 -0.256279 0.524441 0.713305 -0.102824 -0.0715756 -0.256217 0.0822913 0.207798 0.264418 0.0896879 0.10635 0.116923 0.0498907 -0.188098 -0.321054 -0.370559 -0.303275 0.43202 0.0310161 0.214386 0.165261 -0.0521749 -0.0831713 0.0444471 -0.133844 0.202889 -0.499656 -0.495676 0.294928 -0.327881 0.148772 -0.458304 0.162862 -0.320869 -0.0143558 -0.303392 -0.0380948 -0.331288 -0.241091 -0.266058 -0.556196 0.190367 0.140859 -0.0692767 0.141885 0.00731571 0.062802 0.153696 0.125449 0.634905 -0.148815 0.33449 0.00279954 0.133609 -0.267858 -0.0974692 -0.168421 0.444105 -0.420891 0.436731 0.101398 0.15624 -0.55301 0.244955 0.365019 0.412921 0.354119 -0.0537487 0.16861 -0.299779 0.506914 -0.0935818 -0.329938 -0.140924 0.194678 -0.303091 -0.0549392 0.0321 -0.239289 -0.0393327 0.168033 -0.0340876 0.00712705 0.0714578 0.0513355 -0.00188712 0.0883193 -0.244683 0.00764166 0.0693491 -0.512164 -0.242901 0.232287 -0.638791 0.431215 0.17191 0.510335 -0.114093 -0.442537 0.194596 -0.220822 0.109035 -0.181649 0.416744 0.0259886 0.0590879 -0.230222 -0.0945437 0.188725 -0.0610689 -0.277723 -0.0383382 0.119228 0.21355 -0.0754222 0.103788 0.160199 -0.466333 -0.604985 -0.207394 0.126548
狗 -0.0732155 -0.337978 0.0812654 0.225318 -0.172628 0.0685236 0.363652 -0.523913 0.561067 0.362355 -0.0223672 -0.407774 0.0837959 0.476749 0.292688 0.381814 -0.277308 0.269075 0.0180857 0.497424 0.11383 0.206125 -0.172474 -0.223528 0.28384 -0.358962 -0.118535 -0.0295279 0.180538 0.460597 0.00955408 0.104663 0.0183978 -0.346612 0.222515 -0.080775 -0.395345 0.672014 0.117043 0.313652 -0.0219928 0.2052 -0.150519 -0.103752 -0.255678 -0.675208 -0.201391 -0.360284 0.0295554 0.155027 0.245674 0.397335 0.115534 0.15485 0.304921 0.0740678 0.61639 -0.212415 0.486798 -0.305064 -0.567076 -0.110524 0.18384 -0.169345 -0.0898763 -0.161304 0.0443173 -0.16515 0.601841 -0.43942 0.0910357 0.279814 0.288524 -0.174285 -0.191372 -0.197564 -0.00123904 0.32264 -0.0698648 0.146555 0.0272255 0.0409558 -0.640102 -0.308921 -0.150625 0.229697 0.301825 0.369779 -0.11243 0.221655 0.00109502 -0.170005 -0.329414 -0.396685 0.0510834 -0.2999 -0.070745 0.0999695 0.0576804 0.0907605 0.218025 -0.245273 0.1099 0.40726 -0.246932 0.330063 0.363378 -0.0277732 -0.143342 -0.0823464 0.0447409 -0.434968 0.179961 -0.0674994 -0.279848 -0.31856 -0.0481576 0.117414 0.187119 -0.395138 0.139758 -0.255914 -0.244349 0.1013 -0.028179 0.135877 -0.0438952 0.269877
咖啡 0.237844 -0.204106 0.0592873 0.370266 -0.425947 0.068542 0.347615 0.184275 -0.0601971 0.213533 -0.0266391 0.104509 -0.0965135 -0.000274775 -0.0889041 0.15417 -0.281838 -0.0944525 -0.0286385 0.342095 -0.213088 0.0996028 -0.602876 -0.0407858 0.048558 -0.0284282 0.14578 -0.00423455 -0.0786437 0.147128 -0.0745552 -0.419805 0.0587469 -0.00162491 -0.232238 0.156213 0.443495 -0.138656 -0.448632 -0.228116 0.254402 0.207511 -0.466599 -0.203494 -0.0341254 -0.252525 0.459991 -0.570242 0.115628 0.550398 -0.145445 0.239054 -0.0755636 0.320705 0.0905226 0.250369 0.722889 -0.172744 -0.00631404 -0.0806782 -0.441078 -0.185233 0.151199 0.0051709 0.425158 0.44658 0.145037 -0.49421 -0.0110422 0.240854 0.238484 0.155128 0.184459 0.291593 0.124404 0.129969 -0.051683 0.196718 0.078235 0.462927 -0.085741 0.172118 -0.0883847 0.114333 -0.280579 0.110631 -0.108733 -0.0653991 -0.250156 -0.109164 0.179419 0.273702 -0.233868 0.128225 -0.301651 -0.026023 -0.640907 0.0178229 -0.30475 -0.475967 -0.0883784 0.2247 -0.59991 0.119085 0.272499 -0.0199012 0.202694 -0.17323 -0.31302 -0.124594 5.08192e-05 -0.0482666 -0.140258 0.223541 -0.152553 -0.407652 0.247837 -0.475112 -0.0276184 -0.0628614 0.148029 0.114803 -0.0438191 -0.5846 0.218118 0.14598 -0.236356 -0.171983
車 0.216656 -0.536903 -0.0144661 -0.150012 -0.314126 -0.0375013 0.395655 -0.227778 0.14998 0.208787 -0.0614181 -0.0493444 -0.333911 0.141546 -0.0926475 0.641016 -0.006818 -0.107918 0.0230664 0.477038 0.194621 0.209202 -0.306811 0.282742 0.375717 -0.279665 -0.0417806 -0.154549 -0.389887 0.120203 -0.256072 -0.0195173 0.0124525 -0.231996 0.303647 0.56259 -0.252054 -0.336722 -0.390875 -0.308003 -0.108359 0.574503 -0.586952 -0.335842 0.265603 -0.167589 -0.416264 -0.252832 0.221216 -0.375713 0.148417 -0.231916 -0.102297 0.0528021 0.487369 -0.153156 0.30572 0.121799 0.15846 0.13676 -0.357395 -0.361133 0.412359 -0.303208 0.0404182 -0.126996 -0.0453109 0.379182 0.33723 -0.433856 0.0801225 0.46168 0.210836 -0.0154498 -0.270738 -0.130951 0.269182 0.245608 0.215205 0.17793 -0.200723 -0.096361 0.180587 0.326511 -0.155034 0.108484 -0.516003 -0.135663 0.206427 -0.190263 0.0536323 0.0501094 0.00347643 0.0477541 -0.117499 0.135756 -0.237744 0.168232 -0.287398 -0.246732 0.0673687 0.42721 -0.0316812 0.0581336 -0.15151 0.371157 0.767199 0.021982 0.333752 -0.513272 0.471428 0.109692 0.113379 0.0690405 0.390952 -0.102602 0.221997 0.0130184 0.194505 -0.0655483 0.0482777 -0.344298 -0.225141 -0.278701 -0.356033 -0.257971 0.0807601 0.310356
學生 0.0989946 0.0228166 -0.213482 0.100469 -0.40093 0.214069 0.2141 -0.341918 0.642257 0.352451 0.0383955 0.021962 -0.532964 0.0730597 0.0177849 0.200353 -0.269233 0.122677 0.282724 0.201879 0.120762 0.199635 -0.439952 0.335982 0.157844 -0.465756 0.290394 0.262556 0.144803 0.478877 0.171238 0.284115 0.107722 -0.0767926 0.37286 0.273949 -0.109041 -0.0189776 0.208593 0.201465 -0.569517 0.248259 0.0876565 0.103324 -0.272901 0.212332 -0.0200105 0.286618 0.141303 0.0221488 -0.0312126 0.0576697 -0.0638345 -0.288652 -0.445478 -0.168596 0.5793 0.143421 0.458376 0.180399 -0.0756769 -0.0291047 0.317566 -0.118762 0.120745 -0.287529 -0.0783876 -0.056317 0.0565363 0.0859058 0.0581641 0.413275 0.226218 -0.106469 -0.0101327 0.111458 0.16071 0.35081 -0.0603266 0.281827 0.0463359 0.159712 0.155878 -0.192057 -0.0525885 0.125399 0.236233 0.451858 -0.607736 0.0338084 -0.0174072 -0.0333171 -0.174738 -0.0297109 0.0283937 0.593052 -0.0283651 -0.106461 -0.590864 0.144198 -0.584876 0.317661 -0.364443 -0.0305385 -0.205949 -0.00883769 0.294081 0.0559539 0.0769185 -0.251847 0.177203 0.249563 -0.456975 0.0095988 -0.446563 -0.117997 0.452211 -0.464257 0.00972246 -0.131488 0.00839687 -0.25302 -0.183806 0.0658723 -0.429986 0.163445 -0.307325 0.502834
高雄 -0.137305 -0.0544401 -0.180123 0.218481 -0.194104 0.0697589 -0.0600999 0.0700283 0.367743 -0.00504734 0.227187 -0.159628 -0.366102 0.162926 0.292437 -0.190044 -0.251047 0.105798 -0.36278 0.343032 -0.00936875 -0.339283 -0.680543 0.164862 -0.157621 -0.00653632 0.0870823 0.132641 -0.279805 0.00664762 -0.203648 -0.247714 -0.242796 -0.356977 0.610373 0.315695 0.294165 0.0754824 0.269258 -0.154144 0.0374084 -0.0212063 -0.543178 -0.0476688 -0.0911363 -0.08458 0.113001 -0.176391 0.338287 -0.0360071 -0.242455 0.131923 -0.230656 0.159992 0.229856 -0.13239 0.484948 -0.21154 0.191452 0.144561 0.310529 -0.328507 0.0637962 -0.0536902 0.328788 0.070849 0.743721 0.014877 0.284002 -0.502441 0.0908752 0.544267 -0.0197394 0.0350315 -0.13658 0.095519 0.280024 -0.343111 -0.0676007 -0.16034 0.177525 -0.168114 0.316797 -0.262279 0.158894 0.336002 -0.102619 -0.273333 -0.108719 -0.0921624 0.084658 0.0515558 -0.126475 -0.11941 0.000424742 -0.149592 0.169829 -0.247035 -0.607858 -0.0120521 -0.650358 -0.0203127 0.0696813 0.570231 0.00649404 -0.371812 0.499452 -0.176991 -0.145117 -0.105289 0.374585 0.0553014 -0.117289 0.57697 0.211583 -0.100041 0.396281 0.112298 0.164662 0.0285315 0.486627 0.204182 0.227467 -0.207142 -0.110191 -0.245749 0.151311 0.745382
手機 0.442888 -0.22561 0.228024 0.0256321 -0.0119064 -0.061807 0.124868 -0.226587 0.114508 -0.322722 -0.0149672 0.113795 -0.175429 0.0251485 -0.419557 -0.1069 -0.353392 -0.163147 -0.255259 0.0552217 0.122053 0.132525 -0.171569 0.0274959 -0.135306 -0.188067 -0.427963 0.048383 0.142209 0.278002 -0.177804 -0.284873 0.171219 -0.538424 0.566597 0.570058 -0.36954 -0.0813424 -0.615483 -0.118838 -0.0311648 0.315389 -0.258811 -0.17986 -0.210067 -0.371196 0.144844 0.0847338 0.0992935 -0.147957 0.0247589 -0.143118 -0.0519023 0.340295 0.418244 0.191946 0.137138 0.441359 -0.305336 -0.0205581 -0.32896 -0.318293 0.54728 0.443619 0.28148 -0.140152 -0.0720303 0.336241 -0.0967134 0.0543521 0.109711 0.00907499 0.0019085 0.29155 -0.585305 -0.0605547 -0.00437109 0.392163 -0.026504 0.686118 0.28577 -0.199059 0.0471983 0.160892 -0.471965 0.276522 0.0460281 0.22147 -0.32104 0.259687 0.266745 -0.050621 -0.385004 0.231308 0.566579 0.226415 -0.189788 0.491366 -0.090414 -0.173261 -0.342274 0.186645 0.0725654 0.652976 0.223973 0.0849628 0.353818 -0.237129 0.0631542 0.243513 0.141838 -0.167933 -0.207291 0.246645 -0.269025 -0.248077 0.36829 -0.266233 0.598466 -0.36014 -0.0923066 -0.368392 -0.0723897 -0.509591 -0.800294 0.292577 0.0140035 0.457918
台中 -0.0934136 -0.180371 -0.0687633 0.172213 0.152929 0.0471011 0.0208959 -0.208703 0.526005 -0.137541 0.0761375 -0.238376 -0.321988 0.103546 0.255938 -0.169571 -0.199869 -0.149089 -0.0620212 0.0381904 0.0270149 -0.282315 -0.586061 0.178711 -0.192375 -0.436794 -0.0260621 -0.0310349 -0.462724 -0.109847 0.0289203 -0.142287 -0.206656 -0.205566 0.637358 0.475173 0.178134 -0.00560563 0.239394 -0.0648987 -0.0411848 -0.225722 -0.527253 -0.141635 -0.254878 -0.0408323 -0.111694 -0.431701 0.255624 0.0414222 -0.375176 0.110768 -0.141694 0.352565 0.322021 -0.145878 0.548239 -0.249962 -0.0543206 0.248489 -0.0606964 -0.279039 0.28434 -0.0297108 0.625625 -0.0330994 0.466184 -0.0495671 0.31811 -0.484427 0.237413 0.457096 -0.235563 -0.0824368 -0.155649 0.109461 0.506727 -0.168321 -0.16567 -0.24508 0.250585 -0.201255 0.475753 -0.208133 0.07237 0.325214 -0.160846 -0.219548 0.346356 -0.0549703 0.125126 0.194165 -0.268494 -0.0316759 -0.206355 -0.0773346 0.295929 -0.215777 -0.105513 0.179092 -0.615551 0.0682369 -0.101921 0.632123 -0.263754 -0.127405 0.346007 -0.184776 -0.195578 -0.252351 0.394096 -0.0938249 -0.223198 0.334102 0.232452 -0.102189 0.380968 0.0115137 0.290027 0.281926 0.38116 0.0225396 0.0219305 -0.255084 -0.144011 -0.49617 0.147604 0.530856
二 -0.149039 -0.0242251 0.0182379 -0.285148 -0.351385 0.19248 0.0443126 -0.436124 0.170073 0.0232252 -0.260027 -0.122051 0.142473 0.0178841 -0.121377 0.135196 -0.00854229 0.0250742 -0.118453 0.463919 -0.265353 -0.128073 -0.019932 -0.197598 0.0428158 0.27989 0.388613 -0.102023 0.151994 0.159728 -0.241289 -0.116965 -0.330244 -0.171899 0.0684234 0.565099 0.266009 -0.360255 -0.454991 -0.0825273 -0.596991 0.100098 -0.156823 -0.269932 -0.422806 0.352133 0.0792058 -0.138254 0.393889 0.280514 0.205167 0.650402 0.0382145 0.116404 0.125304 -0.311147 0.331543 -0.442956 0.412635 0.112339 -0.0635269 0.00310475 -0.0410276 -0.308247 0.259417 0.204661 0.216471 0.255383 -0.462182 -0.288913 0.015734 0.00247526 0.223221 0.23006 -0.0429352 0.579151 0.0499677 0.0483549 0.0237036 0.131807 0.139054 0.800739 -0.0689188 0.114277 -0.0798644 0.15561 -0.288819 0.0482568 -0.465354 -0.0157949 -0.325528 0.0380186 -0.324751 0.265747 -0.219488 -0.178399 0.382315 -0.29315 0.0211463 -0.0200646 -0.328682 0.42767 0.0551313 0.350246 -0.0827211 -0.0883619 0.620053 -0.126738 -0.186447 -0.233096 0.145668 -0.318928 -0.225306 0.268719 -0.39419 -0.668961 0.0565486 0.0549487 0.314556 -0.0520669 -0.0738411 -0.527567 -0.103623 0.107914 -0.193567 -0.486037 -0.247769 0.34962
台北市 -0.109517 0.0153112 -0.123271 0.328055 -0.336593 -0.00145254 -0.126442 -0.472368 0.257702 0.0741363 0.0394328 0.0700752 -0.121032 0.161723 0.10275 0.156912 -0.214357 0.286097 -0.551469 0.321091 0.0835414 -0.276527 -0.391256 -0.0814115 -0.0185011 -0.221874 -0.183298 0.0283926 -0.467318 -0.0782322 -0.175128 -0.147966 -0.394024 -0.203409 0.468135 0.00936167 -0.175879 -0.0595045 0.0291341 -0.0401094 0.330173 -0.0801814 -0.210557 -0.579974 -0.211243 -0.105203 -0.152329 -0.207575 0.217903 0.241315 -0.693654 0.312405 -0.495512 0.188659 0.132045 -0.255659 0.547766 0.159036 0.128984 0.283234 -0.330407 -0.222956 0.239306 -0.18701 0.197386 -0.176559 0.623066 0.0481134 0.162355 -0.239446 0.244138 0.265232 0.00568841 -0.0560869 -0.0491052 0.0713423 -0.0662963 -0.348515 -0.142112 -0.362846 0.0226286 -0.00307049 0.226613 -0.267138 0.194318 0.212276 0.198222 -0.0192202 -0.0252948 -0.164619 0.0717186 0.323109 -0.243903 -0.0193388 -0.122499 -0.156155 0.153477 0.0409667 -0.376931 0.49918 -0.754039 0.272237 0.113883 0.772367 -0.291379 0.076754 0.203772 0.0160737 0.107331 -0.521622 -0.12133 0.106995 0.0955022 0.292756 0.00751655 -0.10175 0.456274 -0.242627 0.30076 0.394002 0.215174 0.0450211 0.146221 -0.10337 0.0285541 0.0680602 0.261433 0.809579
北 -0.126956 -0.157023 -0.172168 0.00384663 -0.139453 -0.450033 0.124146 -0.180921 0.27745 0.411124 0.0504557 -0.326089 -0.392841 -0.129436 -0.0858413 -0.163682 -0.190712 -0.0732061 -0.493733 0.232196 0.322647 0.0779774 -0.269066 0.150521 -0.438184 -0.150936 0.167795 0.0116036 -0.497257 -0.0142917 -0.359106 0.127875 -0.588017 -0.334774 0.430528 0.0690061 0.200453 -0.0700974 -0.0576376 -0.0940964 -0.23839 0.0598091 -0.313302 -0.254418 -0.486503 0.0480029 -0.292385 -0.135603 0.724625 0.442516 -0.320003 0.0424163 -0.371463 0.132373 0.337658 0.0819569 0.270602 0.0307257 0.394794 0.110108 -0.43079 -0.477332 0.039276 -0.0299689 -0.324432 -0.0340583 0.25216 0.0396931 0.179255 -0.627058 0.269791 0.370607 -0.0381298 -0.0210876 0.21866 0.266572 0.53614 -0.354471 -0.0326869 -0.478891 -0.0707894 0.0269744 0.281743 -0.10919 0.00377608 0.497493 -0.145188 0.108536 -0.0334871 -0.182125 0.186585 0.505714 -0.431482 0.0216707 -0.114662 -0.31267 0.0295978 -0.235202 -0.051153 -0.10513 -0.243615 0.674932 -0.124164 0.510047 -0.195601 -0.123487 0.49091 0.131 0.0289909 -0.548791 0.16763 0.266113 -0.102846 0.320172 -0.0548469 -0.283926 -0.132227 0.0498445 0.576259 0.352281 -0.0088912 -0.172303 0.467361 -0.432916 -0.118456 -0.296485 0.157169 0.54021
貴 -0.0718634 -0.301436 0.478367 -0.0374644 -0.105603 -0.460816 -0.381422 -0.153335 0.309016 0.177285 -0.0918847 -0.0191564 -0.265225 -0.0129337 0.332939 0.302914 -0.365322 0.164334 0.000366642 0.249562 -0.00356157 0.221589 -0.0186083 0.220829 0.127884 -0.356861 -0.0719599 -0.0721188 0.0655903 -0.0364067 -0.24657 -0.0962208 -0.224736 0.010553 0.382181 0.3775 -0.072575 0.285153 -0.536482 -0.150675 0.00521217 0.234917 -0.376135 -0.263453 -0.148357 -0.552388 0.0361696 -0.248152 0.263393 0.607981 -0.408457 0.535755 -0.00341543 -0.113833 0.17187 -0.00836588 0.0881504 -0.0885909 -0.00742034 -0.32798 0.0647504 -0.479069 0.30105 0.297332 0.300341 0.1148 0.71494 -0.341205 0.423855 0.184043 0.123718 0.116545 0.197271 0.282306 -0.0792599 -0.296804 -0.106081 -0.238365 -0.161394 -0.0117993 0.177006 0.247674 0.0152288 0.348952 0.0109154 -0.0290234 -0.104339 0.11963 0.183606 0.287732 0.291413 -0.305728 -0.264591 -0.425223 0.0283228 -0.0504996 -0.110945 -0.258042 -0.257397 -0.288553 -0.0848259 0.279494 -0.0805608 -0.528892 0.157088 -0.361231 0.504331 -0.268457 -0.216848 -0.107109 0.384316 -0.00958852 -0.536934 -0.0897993 -0.475251 -0.0305165 -0.120553 -0.0776614 0.0815926 0.354554 0.322309 -0.246908 -0.175148 -0.446039 0.0508229 -0.122751 -0.315675 0.0561495
臉 0.328223 0.0714527 -0.420373 -0.0998361 -0.0580035 0.212662 0.399084 0.121733 0.015467 0.454027 -0.0411767 0.0452747 0.127378 0.155879 -0.190778 0.238629 -0.153081 0.154308 0.188412 0.190048 -0.103553 -0.0649175 -0.189452 0.287755 0.207001 -0.288318 0.00762154 0.877866 -0.24938 0.340823 0.130183 0.0159131 -0.439358 -0.206115 -0.00693073 -0.16163 -0.243568 0.307192 0.0646463 0.204622 0.440806 -0.10952 -0.496887 0.181392 0.0351622 0.0757044 0.0920534 -0.0357475 0.118572 0.0481454 -0.0933393 -0.169717 0.195882 0.143187 0.209066 -0.0498784 0.377439 0.0188606 0.155723 -0.215471 0.136333 -0.0480503 0.110916 0.178724 0.224509 -0.375094 0.0255221 0.421329 0.349807 -0.308302 -0.107971 0.174275 -0.150427 -0.0645066 -0.11445 0.198288 -0.378763 0.326429 0.22685 0.455009 -0.522244 0.345907 0.112185 -0.0555213 0.0968301 -0.127758 0.284043 0.494438 -0.133873 0.318669 0.252713 0.125515 -0.611744 -0.21471 0.00814164 -0.420108 0.177207 0.137106 0.028224 -0.0259011 -0.384364 0.0683651 -0.227152 0.470678 -0.267655 -0.135893 0.115688 -0.335411 -0.0908578 -0.545768 0.395454 -0.0232634 0.11447 0.227928 -0.34682 -0.175193 -0.279587 0.0172024 0.329393 0.026215 0.48828 -0.517244 -0.154745 -0.0404463 -0.641569 0.355566 -0.418666 0.388324
專業 0.333341 0.184003 -0.233995 -0.235362 -0.445668 -0.151456 0.606207 0.0735174 0.474983 -0.159551 -0.105958 0.042213 -0.322003 0.199477 0.23036 -0.00527694 -0.226926 0.483836 0.0886949 0.0133481 -0.00154673 0.00506778 -0.249897 0.0217149 0.347722 0.0139128 0.296735 0.0315809 -0.161022 0.131772 -0.262509 0.0825388 0.0141683 -0.217082 0.332327 0.177839 -0.0437556 -0.0338884 -0.0415819 0.271364 0.175314 -0.251018 -0.429138 0.0014578 0.0131664 -0.534185 0.323715 0.411638 0.0610499 0.0258941 -0.131184 0.720427 0.121098 0.418379 0.0733538 0.171308 0.382939 -0.0714598 -0.0352336 -0.283628 -0.280777 -0.0625574 0.286486 0.298489 0.314796 -0.291765 0.187235 -0.0798222 0.0866413 0.204085 0.116929 -0.0693095 -0.250156 0.181989 0.349768 -0.23239 0.242659 -0.179582 0.280506 0.113788 0.124393 -0.216336 0.20118 0.176282 -0.146719 -0.0430764 0.19294 0.184347 -0.025723 -0.0111406 0.305215 -0.412646 -0.19762 0.161342 0.0999365 -0.282243 0.648178 0.0162938 -0.0109494 -0.107613 0.00101807 0.176035 -0.487189 0.223964 -0.408995 -0.168037 0.477707 -0.404469 -0.117714 -0.317325 -0.0450766 0.242969 -0.444239 -0.00336098 -0.514773 0.059561 0.110372 0.00963245 -0.289715 0.164107 -0.0148955 0.24983 0.0312569 -0.0109143 -0.478085 -0.11108 -0.216162 0.0680054
光 0.0920793 0.350863 0.280575 -0.368762 -0.290064 0.139904 0.0250714 0.109003 0.299103 0.312125 0.373346 -0.102518 -0.183576 0.0250901 0.0607013 0.280171 -0.478434 0.132416 -0.0747382 0.120713 -0.0302012 -0.200404 -0.330707 -0.0559835 0.00496998 -0.202512 0.268317 0.0490555 0.240832 0.0966266 0.0674886 -0.082817 -0.110724 -0.422233 -0.178987 0.270432 -0.0587656 0.00461633 -0.198309 -0.0300559 -0.206325 0.233956 -0.127849 -0.384799 0.197322 -0.25645 0.0368193 -0.118982 -0.0378952 -0.187399 0.255939 0.378111 -0.0926026 -0.222877 -0.0147373 0.43707 0.0368587 0.210323 0.252039 -0.153758 0.199051 -0.205484 -0.115289 0.161021 -0.173411 -0.225205 0.32315 -0.103506 0.153063 -0.0861344 -0.198308 0.142828 0.247672 0.0706462 -0.551079 0.267957 0.161425 -0.088993 -0.0683388 -0.0613351 0.222251 0.141468 0.105545 -0.0344215 0.124038 -0.471395 -0.421589 0.0536632 -0.253546 0.147402 -0.070573 0.228026 -0.312182 0.143162 0.149885 -0.293147 0.0279993 -0.581961 0.0601258 0.268755 -0.327288 0.31306 -0.0419942 0.553963 -0.150628 0.0464957 0.395958 -0.384328 0.0645724 -0.22364 0.37701 0.197547 -0.294405 0.251243 -0.241807 -0.309446 -0.0503164 0.0936414 0.515158 0.017333 0.170389 -0.238651 -0.473027 -0.190231 -0.613999 -0.163939 -0.288932 0.0551366
黑 0.436025 0.0292877 -0.0298142 -0.193823 0.162442 0.0195546 0.284203 -0.197816 0.327425 0.500454 -0.00279336 0.256805 -0.284888 0.006296 0.190229 0.441371 0.319615 0.0695182 0.215295 -0.123464 -0.254759 -0.153615 -0.177302 0.0254329 0.437964 0.569295 0.0477705 0.270492 -0.119207 0.0405459 -0.23807 -0.109254 -0.262926 -0.0663048 -0.551994 0.275158 -0.157188 0.419938 -0.137925 0.250442 -0.140245 -0.0386561 -0.214921 0.189494 -0.214483 -0.0764807 0.338498 -0.743974 -0.0606281 0.261243 -0.27621 0.305993 0.248112 0.0486491 0.130351 0.239378 0.267405 0.142251 0.21884 -0.0140926 -0.249226 -0.163184 0.19566 -0.00449052 0.269654 -0.0406391 0.582585 0.43934 0.622629 -0.186478 0.128669 0.481 0.581256 0.275579 -0.136095 0.40039 -0.174141 -0.211339 -0.0665267 -0.013687 -0.0814487 0.22651 0.14725 -0.105296 -0.319667 -0.231193 0.250097 -0.155278 -0.0351961 0.0403665 0.0973534 -0.232725 -0.453571 -0.122394 0.377948 0.349611 0.311976 0.144883 -0.0627335 -0.0476355 -0.24143 -0.0888348 0.264859 0.280064 -0.0887243 -0.112791 0.129133 -0.35477 -0.240337 -0.361451 0.0750237 0.347252 -0.073563 0.156863 0.0563513 -0.47965 0.00879174 -0.40828 -0.341722 -0.222834 0.0651614 0.187388 -0.156257 -0.335779 -0.477191 -0.473395 -0.145085 0.0531406
晚上 0.0905691 -0.0952464 -0.147662 -0.0549958 0.317945 -0.0981281 -0.0773319 -0.116864 0.575754 0.265038 0.234747 0.403883 0.108005 -0.355568 -0.399049 0.066039 -0.229893 0.341202 0.0375729 0.248568 0.0753661 -0.159671 -0.276571 0.229645 0.0944447 -0.214431 -0.0726317 -0.390933 -0.0289559 0.175627 0.18241 -0.199636 0.386942 0.0221599 -0.161005 0.406163 0.38507 0.0905709 0.0474147 -0.202233 0.245853 0.395258 -0.342735 -0.0417274 0.17571 0.180106 -0.225809 -0.411602 -0.173747 -0.252944 -0.305005 0.136088 0.139206 0.122378 -0.159381 -0.048345 0.300124 0.156888 0.00655692 -0.31016 -0.166699 0.283092 -0.368032 -0.124865 0.579608 -0.193662 0.752481 -0.088047 -0.165288 0.244068 0.0633173 0.220199 0.0183795 0.124611 0.282884 0.18883 0.140522 -0.315645 0.173263 -0.0586892 0.249646 0.013069 -0.058839 -0.274254 -0.0688143 0.195241 -0.167742 -0.0821551 -0.311571 0.0492094 0.140132 0.0391291 -0.382986 -0.263163 -0.227681 -0.0549716 -0.047363 0.0847946 -0.490183 -0.0133942 -0.591186 -0.161862 0.186656 0.352164 -0.159243 -0.201543 0.409223 0.257403 0.0169018 -0.372579 0.166642 0.0773287 -0.12698 0.399557 -0.102735 -0.532972 0.28853 0.0937559 -0.00660843 -0.051271 0.450848 -0.389048 0.00994762 -0.132001 -0.249898 0.129007 -0.331062 0.0917726
馬英九 0.260264 0.139797 -0.00831638 0.152374 -0.284093 -0.0232199 0.170812 -0.612458 0.471844 0.382011 0.26238 -0.569326 0.284261 0.340157 0.0302047 0.483302 -0.0477021 0.192419 -0.0512674 0.331128 -0.0886236 -0.0917478 -0.279324 -0.00227096 0.082271 -0.103572 0.213768 0.171507 -0.257198 -0.0686586 -0.11494 0.119996 0.170776 -0.267532 0.300538 -0.0434344 -0.256561 0.102249 -0.229858 0.307379 0.194949 0.000844337 -0.242431 -0.263822 -0.369936 -0.430341 0.202633 -0.338511 0.292564 0.213796 -0.453521 0.195345 0.410566 0.218979 -0.00529046 -0.0258908 0.521957 -0.303694 0.389572 -0.300024 -0.188536 0.0579408 0.030516 -0.0914985 -0.0658047 -0.108211 0.269715 -0.0983368 0.325872 -0.371843 -0.135982 0.123271 -0.28988 0.0579346 0.132446 0.216859 0.125575 0.191336 -0.119307 -0.069834 -0.407419 0.177418 -0.215339 0.331055 0.194091 0.294695 -0.147953 -0.0888579 -0.115541 0.168871 0.137345 0.192048 -0.13435 -0.198995 0.217431 -0.0753761 0.153252 0.0735925 -0.0217315 0.15435 -0.169571 0.0420739 0.165442 0.852874 -0.0582489 -0.0599133 -0.134691 0.0552785 0.059168 -0.0881817 -0.0847073 -0.136364 0.0947583 0.359321 -0.396609 0.153713 0.28777 0.0673447 -0.0176704 0.0728462 0.218762 -0.0727753 -0.0152578 0.00351073 -0.212292 -0.00152783 -0.0442935 0.587538
假 0.334457 -0.155038 -0.439675 0.0446847 -0.410674 -0.241996 0.413921 0.0342835 -0.16998 0.489731 -0.164014 -0.0522623 -0.214591 -0.322403 -0.0137119 0.387401 0.0157575 0.484842 0.059761 0.0789013 0.166232 -0.178139 -0.186765 0.269511 0.0635229 0.0122728 0.390294 0.133302 0.164774 0.32666 -0.0137388 -0.381171 0.200559 -0.216631 -0.125265 -0.0267303 0.29171 -0.364866 -0.111985 0.22552 -0.0131847 0.612856 -0.225012 -0.399941 -0.678719 -0.295352 -0.2074 -0.360712 0.201985 -0.109761 -0.0112905 0.119278 -0.241474 0.475607 0.144551 0.37991 0.274578 -0.608753 -0.0443745 -0.576602 -0.0320179 -0.175246 -0.0701947 -0.266735 0.249236 0.176184 0.21972 0.200112 0.187567 -0.152163 0.23543 0.412919 0.103661 -0.0137014 0.0925546 -0.230918 -0.129505 -0.172207 -0.0769197 -0.444771 0.0993555 0.317816 0.122926 -0.0990996 0.0648828 0.336201 0.145763 0.141442 -0.183604 0.449687 -0.0976347 -0.102466 -0.211699 -0.174053 0.226441 -0.290481 -0.0952211 -0.0502131 0.210493 0.177181 -0.150071 -0.0914743 -0.156391 0.250988 0.04771 -0.0444387 0.34872 0.0499679 -0.19638 -0.376737 0.432799 0.0238703 -0.580373 0.200571 -0.473168 -0.233622 -0.206267 -0.0101385 -0.0447319 0.310688 0.28426 -0.323132 -0.109798 -0.540158 -0.354898 -0.149367 0.0546556 0.232935
蛋糕 0.371264 0.505202 -0.1152 0.618209 -0.224578 -0.078414 0.0749667 -0.0424238 0.548868 0.0804672 0.325175 0.110953 0.0422765 -0.0822939 0.440865 0.493186 -0.371709 -0.237726 0.102848 -0.0183953 -0.188856 -0.174458 -0.938504 0.125997 0.0258093 0.126476 -0.159742 -0.0255743 -0.344161 -0.112063 0.0384007 -0.556152 0.0684648 0.0627995 -0.0522727 0.37093 -0.36216 -0.0210377 -0.68131 0.415966 0.0304416 0.0690941 -0.381628 -0.182072 0.0862881 -0.364841 0.209125 -0.640601 0.181454 0.00691606 -0.106753 -0.0863709 -0.107453 -0.272547 0.125308 0.417402 0.405026 0.379133 -0.404789 -0.383026 -0.48044 -0.101962 -0.239901 0.205399 -0.0822513 0.534764 0.371654 -0.013233 0.00514646 -0.014312 0.0481434 -0.276537 -0.204815 0.0903115 -0.0194526 -0.0833285 -0.297841 0.066432 0.155586 0.602963 0.135421 -0.37492 -0.0380848 0.164148 0.024786 0.382935 -0.0987873 -0.0430049 -0.475983 0.0275075 0.124893 -0.0616345 -0.181905 0.0428856 -0.303739 -0.194004 -0.14088 0.428554 -0.101485 -0.0667096 0.119941 0.282086 -0.262832 -0.267567 0.308129 -0.318892 -0.0413557 0.0491825 -0.381626 0.00678557 0.165208 -0.114535 0.275239 0.215618 -0.539508 -0.0388529 0.039832 -0.397604 0.182985 0.0250223 0.0853092 0.0239141 -0.0127175 -0.0114211 0.233689 -0.112821 -0.55656 -0.035101
便宜 -0.0517859 0.0470487 0.394693 0.194615 -0.00631967 -0.0917208 -0.244716 -0.261932 0.297297 0.0748351 -0.0288485 0.23861 -0.229162 -0.006002 0.197217 -0.00195082 -0.304333 0.384544 -0.199825 0.424579 0.164064 0.597848 0.157315 0.0528073 0.13027 -0.358825 0.0307908 0.112116 -0.219207 -0.158021 -0.0686863 -0.154925 -0.417192 -0.26282 0.379028 0.235869 0.0804105 0.210963 -0.546554 -0.0544382 -0.0544719 0.235876 -0.0210041 -0.245595 -0.0915376 -0.508429 -0.0530073 -0.0550856 0.0687017 0.430086 -0.40135 0.31082 0.0652122 0.12566 0.157292 0.00872176 0.110847 -0.19882 0.0558812 -0.254914 0.099158 -0.478228 0.257937 0.365554 0.48623 0.129652 0.83353 -0.272867 0.267862 0.11168 0.458918 -0.0492385 0.205646 0.178245 -0.254666 -0.330304 -0.215953 -0.211914 -0.0515688 -0.114184 0.136817 0.204742 0.0339244 0.331591 0.015231 -0.194536 0.104661 0.156685 0.00273969 0.109194 0.433555 -0.291103 -0.312745 -0.401814 0.192836 0.00984575 -0.172835 -0.258119 -0.305315 -0.598335 -0.0686929 0.524259 -0.154117 -0.373352 0.104527 -0.287212 0.425201 -0.271455 -0.0853699 -0.224636 0.373527 -0.0133772 -0.600091 -0.0595783 -0.384142 -0.466835 -0.136077 -0.104443 0.167923 0.249309 0.215826 -0.023787 -0.00715109 -0.425393 -0.166224 -0.149713 -0.0514622 -0.073327
女人 0.169894 0.322712 -0.0934452 0.208567 0.113623 -0.0277249 0.032322 -0.136053 0.399193 0.44346 0.395929 -0.159904 -0.0554522 0.0398281 -0.114724 0.180185 -0.403639 0.155302 0.146273 0.136804 0.324319 0.185568 -0.0178796 0.413023 -0.184166 -0.611471 -0.0211082 0.0516527 -0.335898 -0.0323931 0.170345 0.117838 0.011895 -0.523725 0.0376541 -0.0813583 -0.123406 -0.260461 -0.397841 0.0382959 -0.0864707 0.22546 -0.457769 -0.14693 -0.157151 0.0532614 0.168125 -0.0806811 -0.218192 -0.193863 -0.202294 0.300911 0.105442 -0.256163 0.193959 -0.0172401 0.382666 -0.267627 -0.0216433 0.01112 -0.514772 -0.303988 -0.0422367 0.17877 0.501615 -0.0382507 0.257425 0.141751 0.548843 0.0761697 0.221453 0.0313878 0.166433 -0.0802434 0.228943 0.0733499 -0.0310687 0.195732 0.245953 -0.352617 -0.145059 -0.390054 -0.0634024 -0.105033 0.0769509 -0.180254 -0.0173353 0.394325 -0.233099 0.199253 0.135476 -0.0301622 0.0440988 0.232539 0.0938909 0.0173614 -0.413596 -0.0217852 -0.166063 0.2387 0.328357 0.349961 -0.15205 0.49828 -0.0812103 0.457956 -0.0116236 0.015254 0.316514 -0.243254 -0.0758275 0.126608 -0.346864 -0.0742601 -0.0850438 -0.351436 -0.293373 0.0141516 -0.329671 -0.221889 -0.0437117 -0.728403 -0.339838 -0.190711 -0.267351 -0.159199 -0.19819 0.0869383
大陸 0.301078 -0.0110941 0.181165 0.239197 -0.12732 0.138477 0.596422 -0.328619 0.00467532 0.341194 0.10502 -0.219108 0.189801 -0.0998775 -0.145073 -0.200111 -0.0745058 0.665084 -0.0132032 0.257883 0.377874 0.104418 -0.241032 -0.160201 0.0472939 0.33408 0.0384898 0.345206 -0.0125756 -0.0522523 0.274942 -0.10461 0.143244 -0.596727 0.894265 0.0102897 -0.198934 0.376952 -0.268251 -0.20623 0.051602 -0.0329692 -0.369627 0.0357757 -0.155563 -0.347962 0.559051 0.085655 0.265031 0.166128 -0.208115 0.295993 -0.266793 0.378914 0.326176 0.040828 0.27864 -0.0313446 0.549143 -0.0794174 -0.00988512 -0.208309 0.256342 -0.156078 0.407854 -0.0893434 0.597002 -0.0425539 -0.0808678 0.21926 -0.237512 -0.0567342 0.07636 -0.225044 -0.298862 0.374187 0.106811 -0.263531 0.0874245 0.0671768 0.144402 -0.277024 -0.0467636 -0.277786 0.160157 -0.333604 0.100889 -0.168906 -0.267127 0.121161 0.364903 0.207121 -0.145978 0.0687287 0.435702 -0.0164427 0.109105 -0.00264308 -0.186672 0.212651 0.0774957 0.275825 0.42685 0.514896 0.00756033 0.0796853 0.319402 0.2569 0.152133 -0.385756 0.425216 0.0296091 -0.297017 0.204964 -0.423656 -0.10274 0.20368 -0.00184936 0.0480273 0.237008 -0.114597 -0.296875 -0.217014 -0.200375 -0.185175 -0.323192 0.0351502 0.736386
坐 -0.0411732 -0.126154 -0.0580249 0.153958 0.0605472 0.128955 0.217829 -0.0257009 0.0987322 0.0422772 0.212317 -0.00953544 0.230542 0.569953 -0.215439 0.198315 -0.608621 0.239391 -0.254246 0.525381 -0.293495 0.755045 -0.125258 0.548673 0.386226 -0.555806 -0.380892 -0.292862 -0.399654 0.0211865 -0.397527 -0.311984 0.0490922 -0.150685 0.360047 0.245149 0.242109 -0.283278 -0.194575 -0.32218 -0.0419995 0.0640198 -0.322622 -0.109544 -0.112862 -0.242385 -0.036887 -0.138958 0.584339 -0.491805 -0.140443 -0.121066 0.376834 -0.0985318 0.123333 -0.229939 0.0928757 0.216447 0.482739 0.379766 -0.208373 -0.0129228 0.135795 -0.663188 0.252389 -0.341321 0.266027 -0.0288701 -0.0672604 0.154809 0.140106 0.417139 0.197048 0.000586519 0.294707 0.327559 0.168283 -0.180218 0.0440973 -0.062062 -0.58991 -0.107319 0.183704 0.122969 -0.370933 0.0808209 -0.227827 -0.0746681 -0.0326694 0.0918105 0.0907423 -0.0710605 0.019952 0.00159093 -0.115508 0.247355 -0.175104 -0.0479924 0.0228394 -0.38114 -0.442241 0.308705 -0.108514 0.211195 -0.188992 0.0294372 0.402469 -0.147174 -0.436426 -0.21754 0.245211 0.349646 -0.251768 0.386873 -0.264068 -0.37515 0.21906 0.22953 -0.253405 0.167403 -0.0710302 -0.379581 -0.182555 -0.386675 -0.352188 0.085167 -0.11488 0.143276
拉麵 0.281565 -0.112121 0.387816 -0.612531 -0.141356 0.354704 -0.143664 -0.0974624 0.608046 0.594115 0.25653 0.143773 0.16586 0.44864 -0.221394 0.482694 -0.595153 -0.329716 -0.109688 0.178391 -0.124964 -0.0609528 -0.677406 -0.0686928 -0.472898 0.10902 -0.108753 -0.387883 0.0415405 -0.440581 -0.241114 -0.456161 4.7327e-05 -0.229284 0.181679 -0.113001 -0.185456 0.530342 0.151553 0.19185 -0.278383 0.297604 -0.171354 -0.123434 0.00320629 -0.0759718 0.150465 0.00985739 0.408028 0.476389 -0.258137 0.5985 0.0497502 0.176081 -0.264836 -0.26617 0.349702 0.0947126 0.146578 -0.0687405 -0.553272 -0.79624 0.197808 0.0904891 0.284952 0.744642 0.647938 -0.365022 0.314265 0.0830278 0.00147659 0.133402 -0.126237 0.106056 -0.0820361 -0.162312 0.144042 -0.0169059 -0.0749861 -0.0270864 -0.0918389 0.189349 -0.0835746 0.0355634 -0.367793 -0.116605 -0.365308 -0.0394814 -0.291597 0.238923 0.799218 -0.0824878 -0.282392 0.295636 -0.212162 0.114726 0.0389348 0.0597696 -0.604186 -0.534937 0.365331 -0.113411 -0.0162578 -0.108738 0.0115866 0.0701915 0.434418 0.422358 -0.231229 0.00629302 0.0967301 0.196179 -0.00063824 0.291277 -0.00634001 -0.60699 0.125637 -0.51642 0.531319 -0.0455847 0.86814 0.115702 0.405714 0.497067 0.38334 -0.184743 -0.122622 -0.197191
低 -0.0681991 -0.430824 0.324155 -0.0947384 -0.501924 -0.784529 0.143448 -0.0955733 0.210073 0.233802 0.0573772 0.076199 -0.383623 -0.202278 0.156589 -0.00342805 -0.0961091 0.327416 -0.400864 0.854848 -0.303008 0.219355 -0.126147 -0.223268 0.125085 0.0614878 -0.225885 -0.109933 -0.0087641 -0.052113 -0.237658 0.248635 -0.252216 -0.524756 0.28295 0.164743 0.120163 -0.00180183 0.118139 0.0752983 -0.0981749 0.569422 -0.339425 -0.291064 -0.127169 -0.0568106 -0.0452207 0.00485334 -0.131689 0.449038 -0.463248 0.352166 0.315399 -0.0105401 0.0950712 0.108713 0.048819 0.0310418 0.0900729 -0.429861 0.0818791 -0.0262759 0.490311 -0.0686585 -0.119357 0.0917206 0.390908 0.138633 0.122216 0.0848624 0.518949 0.204 0.413915 0.0016268 -0.476811 0.0360285 0.315935 -0.232687 -0.102297 -0.233708 0.333362 0.237433 0.14475 0.109884 0.0683668 0.0253754 0.214384 0.272147 -0.0889435 0.317448 -0.0124231 -0.319817 -0.496848 -0.17975 0.0544637 -0.220538 -0.110679 -0.143642 -0.460298 -0.569995 -0.0851823 0.472099 -0.183402 0.446234 0.22013 0.0943711 0.302068 -0.370971 -0.247623 -0.372561 -0.156703 0.190913 -0.617611 -0.0308516 -0.427845 -0.0620573 0.0326797 -0.049666 -0.468997 0.327482 0.154994 -0.157918 -0.0639401 0.0696633 -0.219523 0.0193146 -0.184977 0.0505747
信 -0.00370123 0.054546 -0.246729 0.240928 -0.546166 -0.345399 0.341671 -0.225938 -0.103498 0.305472 -0.0825975 -0.500319 -0.121096 0.000726501 -0.330261 0.363166 -0.652177 0.0993915 -0.210781 0.266476 -0.0530051 0.0440276 -0.496321 -0.227073 0.199927 0.143044 -0.120399 0.117643 0.126038 -0.0861747 0.347056 -0.0775886 -0.163617 -0.149794 0.0666295 0.620075 -0.229791 -0.00545715 0.0736184 0.401379 0.22336 -0.405227 -0.421618 -0.00812474 -0.319196 -0.0131025 -0.0979003 0.173304 0.232847 -0.0858842 -0.117643 0.365665 0.356726 0.178629 0.288239 0.243329 0.0674991 0.199509 0.119078 0.0597276 0.00173377 -0.218346 -0.10093 0.161523 0.207843 -0.139004 0.267428 -0.0144659 0.322775 -0.316218 0.631521 -0.330055 -0.206455 -0.272463 -0.264094 0.502752 0.0786084 0.301316 0.505994 -0.0600647 0.000629514 -0.0921907 0.207966 0.432802 0.228184 -0.0487284 -0.545866 -0.123018 0.325419 0.427243 0.240042 0.213617 -0.378062 -0.161679 -0.0233876 -0.491925 -0.433106 0.0164214 -0.128247 0.108113 -0.284563 -0.226291 -0.268551 0.196737 0.0269286 -0.310306 0.473521 0.450201 -0.155123 -0.0978376 -0.271799 0.314446 -0.327867 0.585684 -0.670666 0.114241 0.0981275 -0.0792162 0.113816 -0.15057 0.132328 -0.549492 -0.314368 -0.375647 -0.0886532 -0.0367725 -0.407538 -0.123954
正妹 0.356956 0.328552 -0.0641299 0.63608 -0.0846107 0.162284 0.0218089 -0.0826735 0.287047 0.184211 0.268234 0.185912 -0.260407 -0.168849 -0.2075 0.129294 -0.240608 0.271979 0.234445 -0.0514916 0.176026 -0.125036 -0.16856 0.464906 0.101425 -0.540902 0.0200752 -0.0841615 -0.260693 0.131852 0.173967 -0.228775 0.0995263 -0.371727 0.193271 -0.0600943 -0.201199 0.0235819 0.138446 0.395237 -0.105763 0.0160286 -0.657148 -0.0311023 -0.175531 0.0729854 0.170984 -0.206205 -0.0228343 0.0486559 0.0598533 0.26894 -0.0692392 0.0866555 -0.123663 0.224491 0.429954 0.0537975 0.359838 0.138164 -0.239147 -0.305136 0.282551 0.308096 0.187592 -0.338565 0.296861 0.0343874 0.413427 0.0904675 -0.0983974 0.267699 -0.119169 0.119387 0.0567296 -0.137712 -0.16223 0.246748 0.127031 0.148236 -0.306648 -0.137413 0.0323592 0.195383 -0.0791602 -0.204322 0.100815 0.105722 -0.120837 0.344228 0.261664 -0.0769072 0.294479 -0.149253 -0.0821914 0.415086 -0.256368 -0.155318 -0.165441 0.19788 -0.0562534 0.452722 -0.225544 0.156095 -0.171654 0.17145 0.4179 0.293925 -0.32515 -0.438211 -0.300188 -0.147941 -0.214238 0.298162 -0.325358 -0.269354 0.296403 -0.189847 -0.160464 -0.145806 0.360495 -0.359302 -0.268225 -0.170771 -0.366633 -0.27632 -0.0324352 -0.215574
水 0.112334 -0.0944374 -0.239329 0.0851662 -0.278459 0.0624273 -0.171685 -0.120667 0.428231 0.40267 -0.017975 0.0808127 -0.339269 0.0551283 -0.047911 0.232918 0.0128466 0.143399 0.206806 0.021085 0.0979808 -0.111841 -0.253794 -0.19273 0.423215 0.332314 0.12582 -0.126579 0.0117492 -0.120994 -0.203579 0.0263146 -0.115572 -0.289112 -0.0187262 0.310648 0.268832 -0.492433 -0.512774 -0.119723 -0.0888129 0.229149 -0.103664 -0.80735 -0.0783398 -0.209995 0.0489956 -0.11618 0.291849 0.278245 -0.205978 0.333705 -0.217118 0.29752 0.455087 0.241642 0.618906 -0.0301889 0.098989 0.0413829 -0.17712 -0.106263 0.00460718 -0.0580755 0.163844 -0.270593 0.364068 0.0458029 0.170588 -0.0547605 0.208981 0.134084 0.199054 -0.0886157 -0.093102 0.258518 0.165053 -0.136262 -0.266654 -0.347944 -0.147926 0.193381 -0.364393 -0.0436506 0.155263 -0.269208 -0.356072 0.113249 -0.207848 -0.0976835 0.342893 0.259711 -0.325534 0.353671 0.106163 -0.160116 -0.0093523 0.146505 -0.178719 -0.138474 0.0781628 0.225069 -0.449315 -0.0476015 -0.0310827 -0.143012 -0.261173 -0.43798 -0.189268 -0.700686 0.101895 0.104383 -0.321208 0.91298 0.0743307 -0.42335 0.247689 -0.0623722 0.0801225 -0.325311 0.541661 -0.407644 -0.385916 -0.0699061 -0.109544 -0.0745518 0.0467056 -0.379432
貓 -0.26079 0.104118 -0.328671 0.515452 -0.153394 0.0656336 0.142294 -0.295986 0.00418739 0.129597 -0.153233 -0.223447 0.0435574 0.324148 0.162281 0.176226 -0.21101 0.0617884 0.720208 -0.143073 0.111811 0.167189 -0.199685 -0.0944635 0.364333 -0.814057 -0.0174172 -0.0430876 0.126097 0.263962 -0.415838 -0.395151 0.298591 -0.617631 0.0171423 0.227365 -0.415145 0.521654 0.145118 0.348226 -0.478281 0.321421 -0.324824 -0.255554 -0.230296 -0.451681 0.114887 -0.661079 0.0590031 -0.0306629 0.384139 0.299628 -0.0188378 -0.00402878 0.34138 0.112259 0.485596 0.093614 0.240235 0.0289253 -0.377322 -0.0774269 0.0712555 -0.431223 0.243936 0.0320344 0.557578 -0.133199 0.458552 -0.319817 0.0224199 0.489947 0.348066 0.0440789 0.175555 -0.13974 0.020201 0.0383983 -0.00733044 0.258678 0.154774 0.11609 -0.339845 0.0541124 -0.135508 0.365205 0.0486149 0.28963 -0.418472 -0.00376741 0.216879 0.146286 -0.345807 0.342688 -0.145475 -0.227673 0.12861 0.342266 -0.133524 -0.179943 0.0254783 -0.321428 -0.0855105 0.171613 -0.502794 0.256703 0.392749 -0.227437 -0.805845 0.081673 -0.0331239 -0.4778 -0.0746302 0.56907 -0.201347 -0.496487 0.239651 0.164986 -0.0640315 -0.640753 0.177094 -0.226373 -0.367789 0.0580018 -0.0397195 0.19872 0.171743 -0.171243
成功 0.0354664 0.0782776 -0.0331347 -0.0819608 -0.393811 0.0812093 0.0931291 -0.106033 -0.158231 -0.172743 0.157835 -0.130453 -0.381509 0.149358 0.408943 -0.0234392 -0.11189 0.225735 -0.179353 0.399028 -0.0376505 -0.0239298 -0.350638 0.17592 0.515598 -0.246224 0.289259 -0.179153 -0.0673307 0.0691057 -0.0128143 -0.200682 0.0126888 -0.537993 -0.129889 0.489406 -0.46214 0.108857 -0.0659792 0.132958 -0.347592 0.343993 -0.214448 0.146444 -0.256161 0.160421 -0.0178286 0.168001 -0.068137 0.0796795 -0.189051 -0.0486079 -0.03465 0.214623 0.397018 -0.16624 0.13396 0.0682253 0.443011 -0.147189 -0.0819191 0.0912807 0.272026 0.204602 0.443004 0.0188636 -0.00036821 -0.0988231 -0.0698338 -0.159226 0.312506 0.144931 -0.153427 0.0603314 0.168957 0.306995 0.0503566 0.219318 0.0132643 -0.0203558 0.551527 0.0202778 0.294249 0.402168 -0.241057 0.043776 -0.10804 -0.0565824 -0.0270003 -0.0577853 0.325928 0.39042 0.0242884 -0.314935 0.529179 0.0131589 0.263693 -0.153139 -0.104958 0.287388 -0.281031 0.148658 0.210624 0.393766 -0.068456 -0.262087 0.0131405 0.0941109 0.0472797 -0.438703 0.0157585 0.0734114 -0.0998121 0.283531 -0.288966 -0.523861 -0.136756 -0.237938 -0.341457 0.483014 0.515863 0.0108237 -0.459889 0.0782535 -0.141435 -0.189696 -0.139063 0.239984
影片 -0.0216171 -0.0203453 -0.0213921 -0.16329 0.044045 0.0246576 0.51315 -0.0265109 0.240759 0.355466 -0.0632565 0.086875 -0.267936 0.0404961 0.0140317 0.404483 -0.115894 -0.109813 0.585215 0.125513 0.170169 -0.214629 -0.285797 -0.0534672 0.0369968 -0.125093 -0.0395464 0.0378268 0.0885767 0.398403 0.0925855 -0.243494 0.163962 -0.416777 0.0389687 -0.012835 -0.705151 -0.00430357 0.114425 0.42478 0.256583 0.175103 -0.373391 0.343743 -0.371988 -0.109396 0.319819 -0.115617 0.0791975 -0.247892 -0.0670952 -0.0244514 -0.245063 0.311713 0.202054 -0.0063554 0.185965 0.00595308 0.0180448 0.18264 -0.0318186 0.0344806 0.136938 0.341887 0.0696595 -0.237892 -0.100325 -0.122197 0.112078 0.0576793 0.151376 -0.177757 -0.314723 0.138563 -0.0124832 0.0197464 0.32674 0.0625902 0.627306 0.0414036 0.34152 -0.160883 0.228177 0.204142 -0.280185 -0.0790492 -0.322055 0.495842 -0.254127 0.505769 0.195942 0.579388 -0.0021623 -0.186074 0.161802 -0.0705075 -0.423977 0.0334002 -0.362849 0.265594 -0.203181 -0.0429343 -0.479495 0.384784 -0.487598 0.152253 0.412999 0.0419208 -0.0994179 -0.347329 -0.0491 -0.0122857 0.16859 0.24434 -0.271969 0.00401456 0.171651 -0.225091 0.300289 -0.243224 0.18182 -0.646772 -0.0711586 -0.0955432 -0.931377 0.091042 0.0723327 -0.108297
台南 0.0789406 -0.089513 -0.166223 0.180804 -0.33797 0.161267 -0.0231756 -0.105838 0.64237 -0.160281 0.231629 -0.285825 -0.389058 0.191348 0.20704 -0.1568 -0.16064 0.180562 -0.164359 0.357127 0.237872 -0.234204 -0.573992 0.262473 -0.125308 0.159484 0.0373989 0.306762 -0.517564 -0.191808 0.107213 -0.294221 -0.272729 -0.0780437 0.465587 0.321887 0.272206 0.0412742 0.347515 0.0100495 -0.170866 -0.0135918 -0.498856 0.0229362 0.021582 0.0149718 -0.0190617 -0.397129 0.614724 0.183705 -0.261172 0.316531 -0.174366 0.280856 0.0718272 -0.0649592 0.204087 -0.283321 0.120607 0.311781 0.219661 -0.210508 0.252768 -0.0364675 0.0837262 0.00635699 0.95231 -0.00155895 0.112469 -0.637346 0.0947104 0.563547 -0.262417 0.0454257 0.000289568 -0.221297 0.225435 -0.373868 -0.014012 -0.296147 0.342721 -0.206298 0.321179 -0.253769 0.325774 0.270246 -0.269243 -0.257191 0.0180749 -0.135223 0.317613 0.246734 -0.126292 -0.139625 -0.132659 -0.109787 0.402982 -0.139976 -0.363947 0.410196 -0.569145 -0.135023 0.0542167 0.436184 -0.162634 -0.318282 0.197467 0.0549875 -0.29593 -0.156769 0.379774 0.175483 0.068651 0.397113 -0.151332 -0.43061 0.206794 -0.0445541 0.26171 0.127628 0.40033 -0.0579032 0.105036 -0.159636 0.080774 -0.215625 0.1797 0.360183
讀 0.258401 -0.305859 0.101292 -0.308545 0.154306 0.241584 0.0798608 -0.520625 0.292686 0.181342 -0.0123507 -0.0424425 -0.408786 0.0629729 0.312125 0.0157579 -0.699025 0.313883 0.181693 0.22741 -0.565659 0.155604 -0.109599 -0.0973497 0.201848 0.196379 0.179823 -0.0322677 0.339863 0.0443139 -0.0230743 -0.200495 -0.0624666 -0.385958 0.32745 0.490893 0.240529 -0.398313 -0.190557 0.513264 -0.166309 -0.187443 0.207271 0.178728 -0.325402 0.143861 -0.195709 0.113322 0.492075 0.153116 -0.251991 0.633243 -0.0217177 0.0579435 -0.0436069 -0.398145 0.232513 -0.0854074 0.378404 -0.149528 -0.181981 0.312098 0.196831 0.085941 0.0238501 -0.35191 0.215932 -0.150019 0.225269 -0.046074 -0.221374 0.55211 0.356167 -0.165028 0.554934 0.187527 -0.187161 0.0905904 0.140088 0.370529 -0.277409 -0.278647 0.474575 -0.0742515 -0.215074 0.293975 0.116701 -0.315316 -0.0346454 0.0917904 0.368142 -0.119017 -0.121711 -0.139025 -0.151589 0.100739 -0.239925 -0.09614 -0.536474 0.351489 -0.341321 -0.0238812 -0.429758 -0.24676 0.400545 -0.455869 0.644662 0.22401 0.0285339 -0.280425 0.0145244 0.0478848 -0.442575 0.00639922 -0.48527 -0.712519 0.181586 -0.0431258 0.00688311 0.162589 -0.36688 -0.207077 0.137061 -0.0013231 -0.224117 -0.0159599 -0.386353 0.334451
海鮮 0.205831 -0.170827 0.147461 -0.200923 -0.292374 0.240493 0.0867447 0.220795 0.148994 0.210531 -0.00620467 0.61895 -0.18718 0.165189 -0.121562 0.124689 -0.0326744 -0.149321 -0.309391 -0.126521 -0.166658 0.317632 -0.133265 0.108329 0.0612992 -0.123857 -0.0329879 -0.266114 -0.0621056 -0.0934377 -0.31711 -0.201029 -0.232194 -0.178038 0.148728 -0.160873 -0.095132 0.314693 0.00664261 -0.0193797 -0.102369 0.167779 -0.606263 0.0297946 0.0937052 0.0434747 -0.011672 0.185432 0.594231 0.15346 -0.119768 0.177946 0.0536563 0.124819 -0.298977 0.0385829 0.386862 -0.127067 0.172326 -0.0490644 0.125409 -0.411927 -0.20715 0.227381 0.375918 0.225884 0.312615 -0.044166 0.260144 0.16326 0.0720835 0.16606 -0.198365 0.252224 -0.112396 0.580895 -0.387549 -0.0382614 -0.31115 0.408216 0.276854 -0.44974 -0.538866 -0.113643 0.0544458 -0.103539 0.225376 0.338626 -0.166042 -0.187317 0.522204 -0.122689 -0.133357 -0.0502967 -0.0527304 0.0973546 -0.252018 0.0931944 -0.0496489 -0.0467937 0.496116 0.153103 -0.277384 0.0688552 -0.00669723 -0.186711 0.748041 -0.288496 -0.718869 -0.378725 0.394005 -0.263674 -0.0893349 0.518043 -0.20724 -0.31826 0.157567 -0.358025 0.144946 -0.627498 0.189413 0.0652891 0.185554 -0.0827424 -0.306242 -0.0994911 0.106606 -0.329001
魯 -0.184268 -0.0752973 0.0545832 0.492539 0.0681211 0.0827516 0.0606465 -0.0938128 0.353169 -0.0801795 -0.0180911 -0.0800466 -0.114949 0.226041 -0.101483 0.242982 -0.383707 0.406798 0.0855878 0.783581 -0.129288 0.120197 -0.597694 0.433316 -0.102395 -0.217539 0.258125 -0.318851 -0.168361 0.211979 -0.362937 0.0123272 0.00814848 -0.0816429 -0.344016 0.282496 -0.218119 0.19195 0.128889 0.287055 -0.409239 0.237283 -0.536233 -0.155913 0.0487269 -0.0891908 0.25293 -0.187344 0.433664 -0.0381201 0.0728604 0.55087 0.360695 0.0726519 -0.427277 -0.558367 0.17912 0.300943 -0.081833 -0.411462 -0.518061 -0.260093 0.0975119 -0.103885 0.0782113 -0.455326 0.0305473 0.0383555 0.0789092 0.166108 -0.178617 0.290516 0.0784584 -0.0760486 -0.0377193 0.0404069 -0.787888 -0.145992 0.128543 -0.0229977 0.230327 0.11 0.0852351 0.40559 -0.0519477 0.0622892 0.816343 -0.273281 0.0972955 0.286648 -0.199018 -0.188984 0.172392 -0.506368 -0.104893 -0.0719797 -0.0142158 -0.0394435 -0.322077 0.268864 0.141057 0.187376 0.215118 0.371535 0.283867 -0.132693 0.587348 0.00317872 -0.108633 0.258668 0.49927 -0.13931 -0.138623 0.0393183 -0.316014 -0.706408 0.115896 -0.285097 0.0138348 -0.144857 -0.158269 -0.0747815 0.221254 -0.066981 -0.051851 -0.14056 -0.289646 -0.200494
書 0.301622 -0.113453 0.281483 -0.148801 -0.183052 -0.0997429 0.144453 -0.523007 0.212598 0.657657 -0.488474 -0.180751 -0.196691 -0.295619 0.073503 0.198224 -0.33866 0.271574 -0.118547 0.349944 -0.395465 0.13049 0.00672792 -0.181909 -0.0372826 0.156282 0.356047 0.122616 0.293479 0.025194 0.694681 -0.338104 -0.0746431 0.124143 0.116014 0.314278 -0.301752 -0.323318 -0.533485 0.333367 -0.0672762 0.163189 -0.425436 -0.271654 -0.363369 -0.0865193 0.0167444 0.049788 0.105897 -0.363413 -0.501335 0.561354 -0.0816106 -0.100224 0.1723 0.0251088 0.589585 -0.0900125 0.321654 -0.0826409 0.146438 0.0331875 -0.16352 0.123601 0.0243776 -0.457359 0.161569 -0.26591 0.154689 -0.0531592 -0.373709 0.412533 0.327262 0.0130777 0.218249 0.224856 -0.350188 0.265431 0.177012 0.361816 -0.192501 -0.195618 0.62973 0.165616 -0.645815 -0.108898 -0.0518691 0.283568 -0.101627 -0.051906 0.320067 -0.236082 -0.176705 0.289839 -0.356479 -0.11058 -0.100739 0.00805379 -0.317284 0.284063 -0.694559 -0.203378 -0.363126 0.0354989 0.227809 -0.189138 0.395339 0.171652 -0.284247 -0.356053 -0.121833 0.398252 -0.0578389 0.136501 -0.614922 -0.153579 0.197187 -0.546361 0.292732 -0.303614 0.217139 0.152526 0.307804 -0.17152 -0.382011 0.210677 -0.0786637 0.466762
服務生 -0.0603371 0.223192 -0.185457 0.285124 0.115273 0.109467 0.0561956 -0.0383868 0.393499 0.891134 0.077361 0.435203 -0.182026 -0.171058 -0.463404 0.265774 -0.0918465 -0.0556612 -0.237269 0.178012 -0.293583 -0.240976 -0.258074 0.241287 0.12039 -0.707812 -0.0501066 0.172155 -0.156427 0.140967 -0.490263 0.0260962 0.0850237 -0.345681 0.398262 -0.0797428 0.233369 0.271522 -0.109937 0.329617 0.141014 0.0786204 -0.302994 0.053103 -0.277063 0.0206319 -0.179004 0.135493 0.41461 0.459605 -0.0936283 -0.0467248 0.076816 0.0755642 -0.255245 0.126 0.510296 -0.171049 -0.0276528 0.0232431 0.0166466 -0.028894 0.0703708 0.115879 0.419391 -0.176523 0.129233 -0.240958 -0.386853 0.427074 0.0802207 0.0115348 0.110664 0.163712 -0.150497 -0.0748352 0.248402 0.191031 -0.172529 -0.259195 -0.352478 -0.0165547 -0.266726 0.298566 -0.141867 0.165751 0.340841 0.278558 -0.260114 -0.192256 -0.0275931 -0.752578 -0.0551069 0.32729 -0.0898632 0.309159 -0.184457 -0.153612 -0.351324 -0.314444 -0.0848606 0.670668 -0.485594 -0.0691772 -0.162387 0.387182 0.399411 -0.248767 0.0334047 0.082822 0.433429 0.0829054 -0.109577 0.56001 -0.415607 0.000336221 0.209719 -0.110115 -0.33585 -0.21254 0.224719 -0.203065 -0.281917 0.1344 0.0104898 -0.332986 -0.339973 0.131212
